svm_type c_svc
kernel_type linear
nr_class 6
total_sv 142
rho -0.18718012010196125 -0.10524571932055836 -0.1106698076366117 -0.415747942609276 -0.27692421348870405 0.07511142896025168 -0.07447511217780389 -0.3356798149542318 -0.4185096887455367 -0.15974512386652326 -0.08036177811598659 -0.10514914451763696 -0.1859188316487399 -0.020186432106975166 0.03435649290681825
label 1 2 3 5 6 4
probA -3.94119560295683 -3.6882486175980906 -3.5476875450871335 -3.8169141684372274 -3.701148259171933 -3.6129363109366865 -3.5747575849624056 -3.9365569447371125 -3.981892839935422 -3.4560073886136546 -3.6077355489331415 -3.4979178342880015 -3.588628152533233 -3.609845447612602 -3.530380763913709
probB -0.13719317990625562 -0.09149886861940314 -0.09527782829241246 0.0208656038641946 -0.09210235808893454 0.06653037564244592 -0.12077219684846412 0.021126053005326457 -0.22715611337010264 0.016777479669741406 -0.005528671626097401 -0.0877347056654898 0.021712443881384345 0.0954258620645716 0.2118019747233972
nr_sv 24 27 20 19 29 23
SV
0.22079771996320907 0.24546570072628393 0.2564705241457035 0.12696857675928314 0.11289128138414245 1:0.5034452676773071 2:0.04615495726466179 3:0.08428531140089035 4:0.044175222516059875 5:0.09288506209850311 6:0.04615495726466179 7:0.10617851465940475 8:0.034616220742464066 9:0.31046292185783386 10:0.06771891564130783 11:0.030144399031996727 12:0.08757287263870239 13:0.04615495726466179 14:0.07224393635988235 15:0.05769369378685951 16:0.09158305078744888 17:0.05769369378685951 18:0.0 19:0.6299135088920593 20:0.05322187393903732 21:0.12406155467033386 22:0.02785698138177395 23:0.129007026553154 24:0.04913336783647537 25:0.058381907641887665 26:0.034616220742464066 27:0.3059316575527191 28:0.061923373490571976 29:0.034616220742464066 30:0.11347625404596329 31:0.05769369378685951 32:0.0774042159318924 33:0.07401193678379059 34:0.08027511835098267 35:0.08783809095621109 36:0.016318241134285927 37:0.027354206889867783 38:0.020426608622074127 39:0.009323370642960072 40:0.016903800889849663 41:0.020958030596375465 42:0.0019526493269950151 43:0.011793297715485096 44:0.0039052986539900303 45:0.011045852676033974 46:0.03179376199841499 47:0.0039052986539900303 48:0.014245966449379921 49:0.013832940720021725 50:0.03597409278154373 51:0.021416988223791122 52:0.01426322665065527 53:0.012911798432469368 54:0.003600507276132703 55:0.009605764411389828 56:0.02733709290623665 57:0.3232176899909973 58:0.16922514140605927 59:0.2649570405483246 60:0.0923142358660698 61:0.009879709221422672 62:0.005857948213815689 63:0.006361970212310553 64:0.03629321977496147 65:0.28817853331565857 66:0.736747682094574 67:0.25938159227371216 68:0.164612278342247 69:0.15516674518585205 70:0.06450889259576797 71:0.16136600077152252 72:0.07435648143291473 73:0.0653553307056427 74:0.02658819407224655 75:0.025562826544046402 76:0.10130450874567032 77:0.07411649078130722 78:0.0073487963527441025 79:0.036421485245227814 80:0.024296779185533524 81:0.005196383688598871 82:0.057268381118774414 83:0.03917906433343887 84:0.08332709223031998 85:0.07456029206514359 86:0.1813044250011444 87:0.0036743981763720512 88:0.011619467288255692 89:0.005924788769334555 90:0.017168020829558372 91:0.3683665990829468 92:0.09804462641477585 93:0.026807352900505066 94:0.06568843126296997 95:0.5369852185249329 96:0.16225309669971466 97:0.42305004596710205 98:0.46508166193962097 99:0.23694518208503723 100:0.03148823603987694 101:0.06261740624904633 102:0.03741240128874779 103:0.017798449844121933 104:0.018075648695230484 105:0.029713204130530357 106:0.034858401864767075 107:0.014697592705488205 108:0.015589151531457901 109:0.0894722267985344 110:0.008190584369003773 111:0.015863046050071716 112:0.0031352099031209946 113:0.01121686864644289 114:0.01206203829497099 115:0.006940082646906376 116:0.006270419806241989 117:0.0415550135076046 118:0.4316342771053314 119:0.1989823430776596 120:0.2302425354719162 121:0.15674786269664764 122:0.045133545994758606 123:0.049107521772384644 124:0.0327918715775013 125:0.09461017698049545 126:0.07305431365966797 127:0.06128436699509621 128:0.008190584369003773 129:0.01397833600640297 130:0.008242658339440823 131:0.007711596786975861 132:0.004458125680685043 133:0.014424971304833889 134:0.011005794629454613 135:0.07823372632265091 136:0.38200175762176514 137:0.007870584726333618 138:0.03222587704658508 139:0.016764475032687187 140:0.03447464480996132 141:0.05840602144598961 142:0.09782727807760239 143:0.12659266591072083 144:0.6914962530136108 145:0.047236572951078415 146:0.14519363641738892 147:0.2338254600763321 148:0.08128072321414948 149:0.10596318542957306 150:0.12482251971960068 151:0.06782763451337814 152:0.07764140516519547 153:0.039451878517866135 154:0.1814820021390915 155:0.1329715996980667 156:0.053052954375743866 157:0.006815413478761911 158:0.07637905329465866 159:0.08348384499549866 160:0.1335688680410385 161:0.19222930073738098 162:0.18502217531204224 163:0.024053066968917847 164:0.054812390357255936 165:0.04465367645025253 166:0.15383662283420563 167:0.11554386466741562 168:0.1953263133764267 169:0.14885245263576508 170:0.2890211343765259 171:0.050572946667671204 172:0.007362627889961004 173:0.0779334083199501 174:0.4168725609779358 175:0.543129563331604 176:0.2376115918159485 177:0.02722509764134884 178:8.978147525340319E-4 179:0.0 180:0.0031900862231850624 181:0.16297808289527893 182:0.4457833766937256 183:0.15871523320674896 184:0.04257200285792351 185:0.1389784812927246 186:0.11211995035409927 187:0.06936540454626083 188:0.08602800220251083 189:0.10954361408948898 190:0.02167787402868271 191:0.038771696388721466 192:0.005181146319955587 193:0.00851092953234911 194:0.0036188322119414806 195:0.007625123020261526 196:0.010281065478920937 197:0.008913309313356876 198:0.018555397167801857 199:0.05633506178855896 200:0.4187304675579071 201:0.7025094032287598 202:0.1279500275850296 203:9.047080529853702E-4 204:0.0 205:0.001919175498187542 206:0.0 207:0.0 208:0.01273931935429573 209:0.003034483175724745 210:0.008028236217796803 211:0.008353044278919697 212:0.009047080762684345 213:0.0032955724745988846 214:0.007676701992750168 215:0.008319443091750145 216:0.0032955724745988846 217:0.07912544906139374 218:0.007794743403792381 219:0.010627456940710545 220:0.004741764161735773 221:0.00931655801832676 222:0.00196410296484828 223:0.0043918676674366 224:0.00416649179533124 225:0.04690799489617348 226:0.2037387192249298 227:0.005555321928113699 228:0.0043918676674366 229:0.00196410296484828 230:0.011179869994521141 231:0.0039497073739767075 232:0.015839971601963043 233:0.2386111468076706 234:0.3042803704738617 235:0.09835582971572876 236:0.005555321928113699 237:0.01756746880710125 238:0.0027776609640568495 239:0.007453246507793665 240:0.008691471070051193 241:0.006631289608776569 242:0.012811826542019844 243:0.09646100550889969 244:0.8702291250228882 245:0.0027776609640568495 246:0.0043918676674366 247:0.0039497073739767075 248:0.0055899349972605705 249:0.002560876775532961 250:0.015885422006249428 251:0.006405913271009922 252:0.14966975152492523 253:0.029198793694376945 254:0.025037474930286407 255:0.16952954232692719 256:0.4046330749988556 257:0.3092785179615021 258:0.10122387111186981 259:0.1054505929350853 260:0.058704107999801636 261:0.04664921760559082 262:0.00683187460526824 263:0.12765903770923615 264:0.4709305167198181 265:0.21574947237968445 266:0.14749330282211304 267:0.028871849179267883 268:0.007581241428852081 269:0.012588545680046082 270:0.01310290303081274 271:0.12252965569496155 272:0.08131162822246552 273:0.014499248005449772 274:0.0 275:0.07295247912406921 276:0.14765456318855286 277:0.1636853814125061 278:0.2174576073884964 279:0.15120390057563782 280:0.4188547730445862 281:0.03648318722844124 282:0.022439800202846527 283:0.014568604528903961 284:0.0 285:0.0 286:0.0346161425113678 287:0.08837287127971649 288:0.2082579880952835 289:0.0 290:0.12047746032476425 291:0.7239750027656555 292:0.17918892204761505 293:0.11106225848197937 294:0.1517994999885559 295:0.024135772138834 296:0.014018039219081402 297:0.0 298:0.014424443244934082 299:0.005375672597438097 300:0.006799747701734304 301:0.027546342462301254 302:0.23765425384044647 303:0.31561267375946045 304:0.07430990785360336 305:0.08766970038414001 306:0.0 307:0.014424443244934082 308:0.010751345194876194 309:0.17108553647994995 310:0.13706840574741364 311:0.16166986525058746 312:0.05954604223370552 313:0.03428787738084793 314:0.01612701825797558 315:0.029257791116833687 316:0.012020369060337543 317:0.005375672597438097 318:0.03246712684631348 319:0.07554089277982712 320:0.17394326627254486 321:0.3036448657512665 322:0.1134740337729454 323:0.010751345194876194 324:0.0 
0.08267231532434978 0.015710205296969055 0.09660240880833 0.0 0.0032278960407305123 1:0.47627201676368713 2:0.06329827755689621 3:0.09396618604660034 4:0.09285849332809448 5:0.2242489457130432 6:0.018571699038147926 7:0.05872887000441551 8:0.03714339807629585 9:0.05252869799733162 10:0.11627723276615143 11:0.03714339807629585 12:0.14094926416873932 13:0.06340774893760681 14:0.2574710249900818 15:0.03714339807629585 16:0.13549377024173737 17:0.029945965856313705 18:0.05252869799733162 19:0.5536344647407532 20:0.07096236199140549 21:0.11745773255825043 22:0.08956262469291687 23:0.19102688133716583 24:0.16077248752117157 25:0.16031251847743988 26:0.018571699038147926 27:0.1339385211467743 28:0.1494992971420288 29:0.13417872786521912 30:0.0822204127907753 31:0.08197944611310959 32:0.19102688133716583 33:0.1346862018108368 34:0.09396618604660034 35:0.08566106110811234 36:0.02626434899866581 37:0.23204684257507324 38:0.08647875487804413 39:0.21877585351467133 40:0.05765250325202942 41:0.30939579010009766 42:0.02882625162601471 43:0.14585056900978088 44:0.02882625162601471 45:0.0 46:0.2470303326845169 47:0.17944061756134033 48:0.14585056900978088 49:0.11035919934511185 50:0.24493834376335144 51:0.08647875487804413 52:0.05469396337866783 53:0.05765250325202942 54:0.05315297842025757 55:0.30939579010009766 56:0.13295967876911163 57:0.10938792675733566 58:0.02882625162601471 59:0.28361281752586365 60:0.13918544352054596 61:0.20054452121257782 62:0.17944061756134033 63:0.04076647758483887 64:0.24493834376335144 65:0.02882625162601471 66:0.12761925160884857 67:0.09456022083759308 68:0.23204684257507324 69:0.09841898083686829 70:0.24702544510364532 71:0.23061001300811768 72:0.04076647758483887 73:0.22429709136486053 74:0.05015435442328453 75:0.09516119211912155 76:0.07523153722286224 77:0.24672679603099823 78:0.11069601029157639 79:0.07930099219083786 80:0.0 81:0.0 82:0.24854670464992523 83:0.05015435442328453 84:0.27097219228744507 85:0.2992036044597626 86:0.10093368589878082 87:0.19616703689098358 88:0.07930099219083786 89:0.07523153722286224 90:0.03546448424458504 91:0.18125759065151215 92:0.09651000052690506 93:0.18317750096321106 94:0.1608503758907318 95:0.2915862202644348 96:0.1357731819152832 97:0.15145711600780487 98:0.10030870884656906 99:0.03546448424458504 100:0.1906525194644928 101:0.05015435442328453 102:0.2957693636417389 103:0.1357731968164444 104:0.3140159249305725 105:0.1210833266377449 106:0.21624672412872314 107:0.14074444770812988 108:0.0 109:0.4717543423175812 110:0.0 111:0.036729197949171066 112:0.0566505528986454 113:0.048232726752758026 114:0.03532658517360687 115:0.06821136921644211 116:0.04977768659591675 117:0.027030300348997116 118:0.06678377836942673 119:0.05485875532031059 120:0.09444651007652283 121:0.016592562198638916 122:0.05565314739942551 123:0.024888845160603523 124:0.06821136921644211 125:0.03318512439727783 126:0.01173271331936121 127:0.7814764976501465 128:0.016592562198638916 129:0.020988116040825844 130:0.0 131:0.06678377836942673 132:0.07466653734445572 133:0.052470285445451736 134:0.06189831718802452 135:0.11218282580375671 136:0.24104540050029755 137:0.016592562198638916 138:0.07109466940164566 139:0.035510994493961334 140:0.037102095782756805 141:0.040057990700006485 142:0.08683575689792633 143:0.04148140549659729 144:0.13273321092128754 145:0.052511297166347504 146:0.12877801060676575 147:0.05335961654782295 148:0.11930505931377411 149:0.11053337901830673 150:0.026454554870724678 151:0.021924126893281937 152:8.639340521767735E-4 153:0.02873585745692253 154:0.05245904251933098 155:0.05348467081785202 156:0.2598353326320648 157:0.05172296240925789 158:0.23895813524723053 159:0.0820779874920845 160:0.0646260678768158 161:0.011933553032577038 162:0.029361823573708534 163:0.1722812056541443 164:0.06728588789701462 165:0.03290735185146332 166:0.04535624757409096 167:0.057054854929447174 168:0.07901162654161453 169:0.15019167959690094 170:0.07515078037977219 171:0.11824612319469452 172:0.0027045411989092827 173:0.06296540051698685 174:0.8032172322273254 175:0.24560417234897614 176:0.07612542062997818 177:0.002942453371360898 178:0.004107095766812563 179:0.014923819340765476 180:0.001970072742551565 181:0.30068889260292053 182:0.11611024290323257 183:0.23665393888950348 184:0.10509470105171204 185:0.21349895000457764 186:0.10039106756448746 187:0.060712188482284546 188:0.225712388753891 189:0.22412359714508057 190:0.005071846768260002 191:0.008488709107041359 192:0.03824401646852493 193:0.018088137730956078 194:0.04038781672716141 195:0.0 196:0.010475682094693184 197:0.003680780064314604 198:0.0 199:0.08333265781402588 200:0.6595484018325806 201:0.46157780289649963 202:0.03784319385886192 203:0.0 204:0.04405806586146355 205:0.0011639648582786322 206:0.012916462495923042 207:0.039030227810144424 208:0.022457163780927658 209:0.04264746233820915 210:0.022329572588205338 211:0.0429372638463974 212:0.009876568801701069 213:0.007074291352182627 214:0.0023279297165572643 215:0.001840390032157302 216:0.0 217:0.16275259852409363 218:0.006607087329030037 219:0.030398935079574585 220:0.01982126198709011 221:0.01920606568455696 222:0.013214174658060074 223:0.03342950716614723 224:0.021170159801840782 225:0.26120924949645996 226:0.15493766963481903 227:0.013214174658060074 228:0.04084565490484238 229:0.022558007389307022 230:0.01920606568455696 231:0.006607087329030037 232:0.01159483753144741 233:0.019229909405112267 234:0.0 235:0.24583321809768677 236:0.006607087329030037 237:0.03342950716614723 238:0.024493178352713585 239:0.02216084487736225 240:0.006607087329030037 241:0.0125360656529665 242:0.009910630993545055 243:0.12145362049341202 244:0.6571547985076904 245:0.6016668081283569 246:0.020893443375825882 247:0.016517717391252518 248:0.03250257298350334 249:0.01269852090626955 250:0.01274295337498188 251:0.016586333513259888 252:0.024103941395878792 253:0.23477515578269958 254:0.13094185292720795 255:0.022130349650979042 256:0.007320398930460215 257:0.028894398361444473 258:0.04561952129006386 259:0.007045815698802471 260:0.051683392375707626 261:0.15931294858455658 262:0.31251221895217896 263:0.3252928853034973 264:0.32538530230522156 265:0.0023106448352336884 266:0.011568020097911358 267:0.0 268:0.018981387838721275 269:0.018010130152106285 270:0.01764475554227829 271:0.28270554542541504 272:0.11690890043973923 273:0.009435729123651981 274:0.0 275:4.280282882973552E-4 276:0.0 277:0.01244454737752676 278:0.0 279:0.09656491875648499 280:0.6910737156867981 281:0.0364246629178524 282:0.02104642242193222 283:0.0019142007222399116 284:0.004708311054855585 285:0.0 286:0.0 287:0.002140141325071454 288:0.05605209246277809 289:0.15750470757484436 290:0.43150660395622253 291:0.2763639986515045 292:0.12613867223262787 293:0.065913125872612 294:0.0 295:0.0 296:0.10718998312950134 297:0.11210598796606064 298:0.41583535075187683 299:0.15888403356075287 300:0.2165094017982483 301:0.0762096419930458 302:0.065913125872612 303:0.0 304:0.06779289990663528 305:0.11539607495069504 306:0.03789738193154335 307:0.17742577195167542 308:0.3370867371559143 309:0.2718258202075958 310:0.1487533450126648 311:0.0419447161257267 312:0.04574618861079216 313:0.1326930671930313 314:0.035003580152988434 315:0.0 316:0.14867237210273743 317:0.08340591192245483 318:0.16172879934310913 319:0.21104976534843445 320:0.1258341521024704 321:0.05359499156475067 322:0.08474112302064896 323:0.05359499156475067 324:0.03789738193154335 
0.31753968153180984 0.0 0.028333784924629714 0.20103609152319454 0.2156773021693745 1:0.5485591292381287 2:0.07583437114953995 3:0.01363189984112978 4:0.09332124143838882 5:0.009639209136366844 6:0.005388481542468071 7:0.00681594992056489 8:0.05557340756058693 9:0.3630421459674835 10:0.12952236831188202 11:0.016165446490049362 12:0.05000390112400055 13:0.1191762164235115 14:0.1304171234369278 15:0.016165446490049362 16:0.05980828404426575 17:0.029142627492547035 18:0.0 19:0.4012908339500427 20:0.04970822110772133 21:0.06815949827432632 22:0.03140637278556824 23:0.01686861552298069 24:0.005388481542468071 25:0.01703987456858158 26:0.03151463717222214 27:0.5438833236694336 28:0.09500302374362946 29:0.07044590264558792 30:0.07677379995584488 31:0.04369400069117546 32:0.04819604381918907 33:0.04908248409628868 34:0.018864961341023445 35:0.022825973108410835 36:0.0 37:0.15380752086639404 38:0.035591334104537964 39:0.058563049882650375 40:0.05375658720731735 41:0.5231500864028931 42:0.04824443534016609 43:0.03904203325510025 44:0.08956903964281082 45:0.028508586809039116 46:0.09429323673248291 47:0.030865438282489777 48:0.06605684757232666 49:0.0 50:0.7483048439025879 51:0.03406165912747383 52:0.07581735402345657 53:0.06944724172353745 54:0.06124633178114891 55:0.10092461109161377 56:0.06504188477993011 57:0.09540656954050064 58:0.0 59:0.027606887742877007 60:0.03622494637966156 61:0.09802010655403137 62:0.06645677238702774 63:0.021825160831212997 64:0.17296786606311798 65:0.08544651418924332 66:0.04660402983427048 67:0.02314908057451248 68:0.051762912422418594 69:0.02954152040183544 70:0.04172377660870552 71:0.08544650673866272 72:0.010912580415606499 73:0.09159503132104874 74:0.0287326630204916 75:0.04073474183678627 76:0.014766620472073555 77:0.607194185256958 78:0.02088315598666668 79:0.04046999663114548 80:0.031802233308553696 81:0.02995925210416317 82:0.05970548838376999 83:0.014766620472073555 84:0.03945082053542137 85:0.00492220651358366 86:0.7361611723899841 87:0.04760923981666565 88:0.04529373720288277 89:0.052338916808366776 90:0.0781039148569107 91:0.1257287859916687 92:0.05842310190200806 93:0.04669615253806114 94:0.03506707772612572 95:0.035220444202423096 96:0.013922102749347687 97:0.037356920540332794 98:0.04540688171982765 99:0.006961051374673843 100:0.13759638369083405 101:0.03254785016179085 102:0.02972835674881935 103:0.023766515776515007 104:0.017610222101211548 105:0.04342632740736008 106:0.04840681329369545 107:0.03857707977294922 108:0.02731195278465748 109:0.5379501581192017 110:0.06608323007822037 111:0.07954993844032288 112:0.006091450806707144 113:0.029965976253151894 114:0.0 115:0.034673143178224564 116:0.03418797627091408 117:0.4427347779273987 118:0.14409635961055756 119:0.03418797254562378 120:0.0616411417722702 121:0.053742025047540665 122:0.021793438121676445 123:0.03298041969537735 124:0.0154102873057127 125:0.03654870390892029 126:0.031119870021939278 127:0.4864310622215271 128:0.081996850669384 129:0.07146330922842026 130:0.03559788316488266 131:0.029965976253151894 132:0.014706064015626907 133:0.02696800045669079 134:0.015913620591163635 135:0.42699575424194336 136:0.05798520892858505 137:0.09181901812553406 138:0.11643292009830475 139:0.07886475324630737 140:0.029965976253151894 141:0.006091450806707144 142:0.02696800045669079 143:0.0 144:0.02246415987610817 145:0.023189609870314598 146:0.05821273475885391 147:0.12021400779485703 148:0.01530507393181324 149:0.06438910961151123 150:0.015150217339396477 151:0.003105432726442814 152:0.00906145665794611 153:0.0412176251411438 154:0.058276884257793427 155:0.11341553926467896 156:0.11482445895671844 157:0.05647739768028259 158:0.14078231155872345 159:0.07537517696619034 160:0.0953638032078743 161:0.06077460199594498 162:0.07049788534641266 163:0.22880910336971283 164:0.13288390636444092 165:0.07214779406785965 166:0.11248673498630524 167:0.05219021439552307 168:0.017650291323661804 169:0.05459361523389816 170:0.10923998802900314 171:0.2053832709789276 172:0.024924611672759056 173:0.18999305367469788 174:0.8354690670967102 175:0.07560547441244125 176:0.057057227939367294 177:0.08725030720233917 178:0.003485874505713582 179:0.0 180:0.001993125071749091 181:0.2919948101043701 182:0.47541943192481995 183:0.061459410935640335 184:0.00593396183103323 185:0.05387617275118828 186:0.11570506542921066 187:0.09507367759943008 188:0.3018817603588104 189:0.1668577939271927 190:0.04600905254483223 191:0.03313714265823364 192:0.03604031354188919 193:0.006990121677517891 194:0.01868671551346779 195:0.008391888812184334 196:0.016377801075577736 197:0.03155328333377838 198:0.02271932363510132 199:0.43380412459373474 200:0.5752780437469482 201:0.07557518035173416 202:0.01720549166202545 203:0.004396873991936445 204:0.0024579274468123913 205:0.00621811905875802 206:0.015741901472210884 207:0.027882646769285202 208:0.0704612135887146 209:0.018710853531956673 210:0.0093271778896451 211:0.010849816724658012 212:0.010992185212671757 213:0.0034760343842208385 214:0.007772648707032204 215:0.02663743495941162 216:0.034452784806489944 217:0.43549424409866333 218:0.031580448150634766 219:0.08057509362697601 220:0.060835305601358414 221:0.013486462645232677 222:0.023183880373835564 223:0.04577457159757614 224:0.0 225:0.4589758515357971 226:0.060547906905412674 227:0.07250122725963593 228:0.09020844101905823 229:0.03774479776620865 230:0.05664314329624176 231:0.02059224806725979 232:0.026701834052801132 233:0.027819214388728142 234:0.0 235:0.1821921169757843 236:0.06767231971025467 237:0.08042989671230316 238:0.03618798032402992 239:0.05664314329624176 240:0.012062659487128258 241:0.01907273940742016 242:0.0 243:0.6834680438041687 244:0.1259438842535019 245:0.006031329743564129 246:0.05759592726826668 247:0.07383939623832703 248:0.04045938700437546 249:0.006031329743564129 250:0.01907273940742016 251:0.03761177882552147 252:0.13250969350337982 253:0.16461621224880219 254:0.11065085232257843 255:0.042763885110616684 256:0.11683543771505356 257:0.07583015412092209 258:0.08624859899282455 259:0.0016876511508598924 260:0.040385473519563675 261:0.22483724355697632 262:0.24776111543178558 263:0.20332500338554382 264:0.2400178611278534 265:0.0010673643555492163 266:0.0 267:0.0010673643555492163 268:9.546796209178865E-4 269:0.0019681225530803204 270:0.03795909509062767 271:0.7908982038497925 272:0.12137921899557114 273:0.02064986154437065 274:0.0 275:0.0 276:0.0 277:0.00956038013100624 278:0.003773702774196863 279:0.07623022794723511 280:0.22801578044891357 281:0.11931305378675461 282:0.015563877299427986 283:0.009431740269064903 284:0.006437061820179224 285:0.007612728048115969 286:0.0024339649826288223 287:0.005587874446064234 288:0.06877616792917252 289:0.16392794251441956 290:0.1339683085680008 291:0.1480158567428589 292:0.11565101146697998 293:0.08945807814598083 294:0.09887316077947617 295:0.10584492981433868 296:0.02667124755680561 297:0.04926931858062744 298:0.2737138271331787 299:0.24395595490932465 300:0.15265055000782013 301:0.15881502628326416 302:0.017891615629196167 303:0.013335623778402805 304:0.06747350841760635 305:0.11298122256994247 306:0.05657825991511345 307:0.20139284431934357 308:0.0 309:0.09812802076339722 310:0.3667801320552826 311:0.41349223256111145 312:0.3235169053077698 313:0.03837142139673233 314:0.13118726015090942 315:0.037718839943408966 316:0.2262364625930786 317:0.2649694085121155 318:0.1525326669216156 319:0.16476310789585114 320:0.12610618770122528 321:0.0759405642747879 322:0.08054236322641373 323:0.013335623778402805 324:0.05657825991511345 
0.021512848121978696 0.03066315103283281 0.09088242083392256 0.0 0.20256047192314486 1:0.07255839556455612 2:0.12813621759414673 3:0.24134404957294464 4:0.2665887773036957 5:0.2296583503484726 6:0.19091184437274933 7:0.15790218114852905 8:0.20275303721427917 9:0.025042878463864326 10:0.1346273124217987 11:0.053123969584703445 12:0.0559975765645504 13:0.15159280598163605 14:0.11878880113363266 15:0.2487764209508896 16:0.1752559244632721 17:0.04264648258686066 18:0.07512863725423813 19:0.13591241836547852 20:0.12785401940345764 21:0.19654598832130432 22:0.15612491965293884 23:0.23757760226726532 24:0.22435101866722107 25:0.2025437206029892 26:0.08167723566293716 27:0.10778054594993591 28:0.19103698432445526 29:0.07083195447921753 30:0.1517479419708252 31:0.1032097265124321 32:0.12670806050300598 33:0.17574407160282135 34:0.16294744610786438 35:0.23410196602344513 36:0.25396472215652466 37:0.010281289927661419 38:0.003536871401593089 39:0.00894765555858612 40:0.03469667211174965 41:0.013444764539599419 42:0.010334576480090618 43:0.015292230062186718 44:0.011693695560097694 45:0.0 46:0.016024021431803703 47:0.016045762225985527 48:0.02589034102857113 49:0.04013168066740036 50:0.07522683590650558 51:0.052587661892175674 52:0.018469244241714478 53:0.013462130911648273 54:0.008262725546956062 55:0.19063709676265717 56:0.08181869983673096 57:0.38343775272369385 58:0.4868384301662445 59:0.21100129187107086 60:0.05957518890500069 61:0.05381562188267708 62:0.014264346100389957 63:0.26754453778266907 64:0.05007263645529747 65:0.10773040354251862 66:0.09482260793447495 67:0.2199966460466385 68:0.4194951057434082 69:0.17858120799064636 70:0.384744256734848 71:0.09299156069755554 72:0.016130615025758743 73:0.026008162647485733 74:0.00528691103681922 75:0.003343735821545124 76:0.02329433523118496 77:0.03664786368608475 78:0.035369496792554855 79:0.034498244524002075 80:0.00264345551840961 81:0.0 82:0.018116524443030357 83:0.007930366322398186 84:0.025996726006269455 85:0.026663344353437424 86:0.034283485263586044 87:0.0330861359834671 88:0.02189982868731022 89:0.009549354203045368 90:0.014953642152249813 91:0.13057053089141846 92:0.05683460459113121 93:0.001671867910772562 94:0.04213554412126541 95:0.04408388212323189 96:0.017618373036384583 97:0.17294929921627045 98:0.940909743309021 99:0.21502427756786346 100:0.0285180751234293 101:0.016455253586173058 102:0.019309252500534058 103:0.017266327515244484 104:0.024923814460635185 105:0.03728034719824791 106:0.006687471643090248 107:0.021742165088653564 108:0.0074768210761249065 109:0.2746320366859436 110:0.130111426115036 111:0.007065255660563707 112:0.0 113:0.13988493382930756 114:0.2832382619380951 115:0.1739940047264099 116:0.1386151909828186 117:0.1030682921409607 118:0.35244351625442505 119:0.06953932344913483 120:0.0 121:0.022342301905155182 122:0.0049958904273808 123:0.044684603810310364 124:0.06746973097324371 125:0.15470390021800995 126:0.11538893729448318 127:0.39407914876937866 128:0.20162203907966614 129:0.07841741293668747 130:0.10638277232646942 131:0.029975343495607376 132:0.1899142563343048 133:0.12157997488975525 134:0.12983721494674683 135:0.1680857390165329 136:0.044963013380765915 137:0.011171150952577591 138:0.0 139:0.01579839363694191 140:0.4246506989002228 141:0.23496663570404053 142:0.1483703851699829 143:0.029184091836214066 144:0.056995563209056854 145:0.46859684586524963 146:0.007359028793871403 147:0.06946852058172226 148:0.06604286283254623 149:0.0772845596075058 150:0.038077495992183685 151:0.03738253191113472 152:0.01870162971317768 153:0.2628304958343506 154:0.07567568123340607 155:0.2708524465560913 156:0.15663699805736542 157:0.11520678550004959 158:0.028131477534770966 159:0.012535943649709225 160:0.003772345371544361 161:0.014322299510240555 162:0.012269663624465466 163:0.1618330329656601 164:0.024106040596961975 165:0.036007024347782135 166:0.0068440791219472885 167:0.0160494577139616 168:0.010157275013625622 169:0.009536320343613625 170:0.013663381338119507 171:0.5081636309623718 172:0.4796263873577118 173:0.23304183781147003 174:0.01820811629295349 175:0.031356826424598694 176:0.00892309844493866 177:0.020059071481227875 178:0.018380800262093544 179:0.002846670104190707 180:0.03515103459358215 181:0.2126617431640625 182:0.964153528213501 183:0.022565599530935287 184:0.007526175584644079 185:0.021839743480086327 186:0.09119413793087006 187:0.03558977693319321 188:0.05974186956882477 189:0.04219214618206024 190:0.012815690599381924 191:0.01154220849275589 192:0.026489105075597763 193:0.019153008237481117 194:0.022673914209008217 195:0.030138829723000526 196:0.027362842112779617 197:0.015926329419016838 198:0.011246743611991405 199:0.03104042261838913 200:0.010167530737817287 201:0.030108913779258728 202:0.01634364016354084 203:0.01873062551021576 204:0.0044087315909564495 205:0.021050497889518738 206:0.01154220849275589 207:0.005026727449148893 208:0.013801513239741325 209:0.0022043657954782248 210:0.01812412217259407 211:0.014708269387483597 212:0.020702268928289413 213:0.026299096643924713 214:0.014079681597650051 215:0.0044087315909564495 216:0.0 217:0.10736926645040512 218:0.03079797327518463 219:0.01731986738741398 220:0.011458586901426315 221:0.005812233779579401 222:0.0036759793292731047 223:0.013151583261787891 224:0.06607116013765335 225:0.05165749043226242 226:0.14031803607940674 227:0.02037171460688114 228:0.03409766033291817 229:0.01405789703130722 230:0.0384187176823616 231:0.026608476415276527 232:0.030813638120889664 233:0.047509171068668365 234:0.23601198196411133 235:0.018976425752043724 236:0.05010848119854927 237:0.005812233779579401 238:0.005198619794100523 239:0.01992681995034218 240:0.05535947158932686 241:0.10376632958650589 242:0.047758061438798904 243:0.02994423918426037 244:0.24534951150417328 245:0.7334282994270325 246:0.48104459047317505 247:0.1336672306060791 248:0.02680065669119358 249:0.024283569306135178 250:0.02307840622961521 251:0.01405155099928379 252:0.1658926159143448 253:0.2739867866039276 254:0.09698519855737686 255:0.06962304562330246 256:0.2370821088552475 257:0.29159310460090637 258:0.04104560986161232 259:0.022203445434570312 260:0.02375730685889721 261:0.23733903467655182 262:0.4391212463378906 263:0.01536267064511776 264:0.014025725424289703 265:0.0333259217441082 266:0.1526288241147995 267:0.05104435980319977 268:0.1554468274116516 269:0.0846455991268158 270:0.26822468638420105 271:0.37528055906295776 272:0.0889979749917984 273:0.07258012890815735 274:0.019148938357830048 275:0.012510061264038086 276:0.020371949300169945 277:0.009244202636182308 278:0.014089521951973438 279:0.11453152447938919 280:0.3149957060813904 281:0.002670418471097946 282:0.00846606120467186 283:0.01383238099515438 284:0.008966958150267601 285:0.1393398493528366 286:0.15214155614376068 287:0.09921648353338242 288:0.25784337520599365 289:0.0435386560857296 290:0.021455887705087662 291:0.04072074592113495 292:0.03585347905755043 293:0.03958059847354889 294:0.044635456055402756 295:0.04785623401403427 296:0.017700981348752975 297:0.006258241832256317 298:0.04781786724925041 299:0.024836475029587746 300:0.046318281441926956 301:0.030285974964499474 302:0.015832239761948586 303:0.013275736942887306 304:0.03078647516667843 305:0.031971968710422516 306:0.006258241832256317 307:0.06433332711458206 308:0.029332520440220833 309:0.04094976186752319 310:0.073710598051548 311:0.08191859722137451 312:0.12724566459655762 313:0.38528677821159363 314:0.8301659822463989 315:0.19268204271793365 316:0.020033929497003555 317:0.004425245337188244 318:0.016792625188827515 319:0.10078593343496323 320:0.22086691856384277 321:0.09752412885427475 322:0.030786478891968727 323:0.011560739949345589 324:0.010091111995279789 
0.0 0.20808374247032244 0.0 0.0 0.0 1:0.4604297876358032 2:0.06243416666984558 3:0.0605742484331131 4:0.028274472802877426 5:0.05374009534716606 6:0.0 7:0.020276498049497604 8:0.025535041466355324 9:0.49326837062835693 10:0.13804814219474792 11:0.12068550288677216 12:0.045148540288209915 13:0.12573298811912537 14:0.13966071605682373 15:0.05617284029722214 16:0.0471624918282032 17:0.029864225536584854 18:0.0 19:0.3744511902332306 20:0.12568524479866028 21:0.06303088366985321 22:0.05837351456284523 23:0.05057891458272934 24:0.014137236401438713 25:0.022352933883666992 26:0.0581049807369709 27:0.5040897727012634 28:0.11534152179956436 29:0.04840957000851631 30:0.049619127064943314 31:0.03827100619673729 32:0.0442565493285656 33:0.03413030505180359 34:0.044705864042043686 35:0.04400146007537842 36:0.06605391204357147 37:0.1260533481836319 38:0.03023449517786503 39:0.07310807704925537 40:0.13829320669174194 41:0.2680243253707886 42:0.0 43:0.0791214182972908 44:0.01966492086648941 45:0.0 46:0.1029624491930008 47:0.01966492086648941 48:0.03958967700600624 49:0.01582510583102703 50:0.52858966588974 51:0.02509523741900921 52:0.0331658311188221 53:0.023679522797465324 54:0.030627036467194557 55:0.07621829956769943 56:0.03932983800768852 57:0.0663316622376442 58:0.03277486562728882 59:0.08819862455129623 60:0.006554973311722279 61:0.0331658311188221 62:0.04989941790699959 63:0.009270132519304752 64:0.05031075328588486 65:0.03932983800768852 66:0.029020100831985474 67:0.06907941401004791 68:0.7375383377075195 69:0.028935052454471588 70:0.05389447510242462 71:0.04989941790699959 72:0.024217771366238594 73:0.07905963808298111 74:0.03609707951545715 75:0.03376989811658859 76:0.013348725624382496 77:0.6693496108055115 78:0.057882316410541534 79:0.05523507297039032 80:0.013348725624382496 81:0.02831692434847355 82:0.08863221853971481 83:0.0415472574532032 84:0.05333344265818596 85:0.15487924218177795 86:0.6577401161193848 87:0.013348725624382496 88:0.03799113258719444 89:0.026697451248764992 90:0.021745890378952026 91:0.102704718708992 92:0.02002308890223503 93:0.06985940784215927 94:0.016113337129354477 95:0.05372758209705353 96:0.04685245454311371 97:0.05065484717488289 98:0.046720534563064575 99:0.031184863299131393 100:0.15344743430614471 101:0.0415472574532032 102:0.025327423587441444 103:0.026697451248764992 104:0.023878924548625946 105:0.026697451248764992 106:0.07408063858747482 107:0.006674362812191248 108:0.05950178578495979 109:0.490983784198761 110:0.11202196031808853 111:0.10325656086206436 112:0.05455278977751732 113:0.0818096175789833 114:0.01663016900420189 115:0.07399863749742508 116:0.021722756326198578 117:0.4860689342021942 118:0.12066049128770828 119:0.1139242947101593 120:0.07362489402294159 121:0.028389474377036095 122:0.04462342709302902 123:0.04027751460671425 124:0.04785102978348732 125:0.06499601155519485 126:0.011759305372834206 127:0.3617765009403229 128:0.13644324243068695 129:0.06118519976735115 130:0.05079500749707222 131:0.06321652233600616 132:0.03183369338512421 133:0.05547903850674629 134:0.024945255368947983 135:0.4640754163265228 136:0.16610018908977509 137:0.07348334789276123 138:0.05836886540055275 139:0.09545207023620605 140:0.07809099555015564 141:0.008315084502100945 142:0.03681245073676109 143:0.06699515879154205 144:0.046052876859903336 145:0.10539564490318298 146:0.09703299403190613 147:0.30914610624313354 148:0.11402629315853119 149:0.1265975534915924 150:0.05652914196252823 151:0.0695282444357872 152:0.033461518585681915 153:0.05012734979391098 154:0.05222037062048912 155:0.13388638198375702 156:0.18990252912044525 157:0.15505704283714294 158:0.1867196261882782 159:0.20781271159648895 160:0.12857669591903687 161:0.060656823217868805 162:0.0295867919921875 163:0.12955424189567566 164:0.00806737132370472 165:0.047428157180547714 166:0.12231689691543579 167:0.08688067644834518 168:0.10635107010602951 169:0.0886947438120842 170:0.14998409152030945 171:0.3000456988811493 172:0.005700686480849981 173:0.026718338951468468 174:0.5600122213363647 175:0.37461015582084656 176:0.18783532083034515 177:6.373561336658895E-4 178:0.0 179:0.005931180436164141 180:0.0 181:0.45211243629455566 182:0.4052918255329132 183:0.44954490661621094 184:0.0689535066485405 185:0.0324409194290638 186:0.24125944077968597 187:0.08065877109766006 188:0.15804295241832733 189:0.044909436255693436 190:0.019318562000989914 191:0.011018775403499603 192:0.01788020320236683 193:0.008558910340070724 194:0.0031608035787940025 195:0.005300828721374273 196:0.023578422144055367 197:0.012765991501510143 198:0.004997669253498316 199:0.06207576021552086 200:0.07418067753314972 201:0.5599272847175598 202:0.057518959045410156 203:0.00717720715329051 204:0.04785563424229622 205:0.00782258901745081 206:0.0017669429071247578 207:0.0 208:0.020929917693138123 209:0.009232104755938053 210:0.012906724587082863 211:0.0035338858142495155 212:0.010272611863911152 213:0.011030389927327633 214:0.01797524094581604 215:0.014532933011651039 216:0.002498834626749158 217:0.06301366537809372 218:0.010158782824873924 219:0.010711715556681156 220:0.008616342209279537 221:0.005788538139313459 222:0.005177426151931286 223:0.0065489825792610645 224:0.006471782457083464 225:0.04437028616666794 226:0.19482886791229248 227:0.21359437704086304 228:0.0750424787402153 229:0.026564281433820724 230:0.004051976837217808 231:0.006805884651839733 232:0.007367605343461037 233:0.012970449402928352 234:0.05288652330636978 235:0.14970341324806213 236:0.002588713075965643 237:0.01272918377071619 238:0.007007922045886517 239:0.00984051451086998 240:0.004419209435582161 241:0.0065489825792610645 242:0.005177426151931286 243:0.03967362642288208 244:0.6070395112037659 245:0.6868601441383362 246:0.00491173705086112 247:0.006249705795198679 248:0.004051976837217808 249:0.003124853130429983 250:0.00245586852543056 251:0.026233600452542305 252:0.1875544637441635 253:0.2169177234172821 254:0.16394515335559845 255:0.15880508720874786 256:0.19472287595272064 257:0.22205182909965515 258:0.0833602100610733 259:0.1883794069290161 260:0.07885783165693283 261:0.1643526256084442 262:0.2206517457962036 263:0.18423296511173248 264:0.024553997442126274 265:0.08688001334667206 266:0.178373321890831 267:0.0012897339183837175 268:0.06247982755303383 269:0.057337820529937744 270:0.08948451280593872 271:0.5792700052261353 272:0.3389168381690979 273:0.06689175218343735 274:0.14323607087135315 275:0.04651613160967827 276:0.004928066395223141 277:0.012838086113333702 278:0.014785127714276314 279:0.05180659145116806 280:0.34206530451774597 281:0.010642971843481064 282:0.01184330228716135 283:0.002579467836767435 284:0.02662801556289196 285:0.01956642046570778 286:0.012262650765478611 287:0.0012897339183837175 288:0.031377725303173065 289:0.021910708397626877 290:0.014123855158686638 291:0.015493209473788738 292:0.0043304841965436935 293:0.01780245080590248 294:0.018372688442468643 295:0.028177326545119286 296:0.009186344221234322 297:0.0 298:0.026018965989351273 299:0.03318522498011589 300:0.027113117277622223 301:0.0043304841965436935 302:0.031496644020080566 303:0.010454713366925716 304:0.030986418947577477 305:0.009186344221234322 306:0.0 307:0.008385098539292812 308:0.01718597114086151 309:0.028177326545119286 310:0.01351682748645544 311:0.03834374248981476 312:0.010454713366925716 313:0.028342025354504585 314:0.014123855158686638 315:0.008660968393087387 316:0.010955354198813438 317:0.04546786844730377 318:0.9446672201156616 319:0.28935307264328003 320:0.022024046629667282 321:0.09454987943172455 322:0.02940181829035282 323:0.015310573391616344 324:0.0043304841965436935 
0.0 0.1520116021030379 8.798590824585289E-4 0.0 0.0 1:0.38555511832237244 2:0.13415610790252686 3:0.06620127707719803 4:0.09241015464067459 5:0.14979638159275055 6:0.05054079368710518 7:0.13240253925323486 8:0.12560808658599854 9:0.05694849044084549 10:0.056173644959926605 11:0.04186936467885971 12:0.11916228383779526 13:0.04186936467885971 14:0.2808682322502136 15:0.10467340797185898 16:0.15291844308376312 17:0.0 18:0.0 19:0.6895378828048706 20:0.04186936467885971 21:0.07944152504205704 22:0.07147547602653503 23:0.12170956283807755 24:0.0 25:0.10592202842235565 26:0.020934682339429855 27:0.1436394453048706 28:0.17788320779800415 29:0.06280405074357986 30:0.06620127707719803 31:0.03860164433717728 32:0.14979638159275055 33:0.06280405074357986 34:0.14564278721809387 35:0.0 36:0.0 37:0.06008679047226906 38:0.014395516365766525 39:0.024278726428747177 40:0.009597010910511017 41:0.027897438034415245 42:0.01158461719751358 43:0.030348407104611397 44:0.0287910308688879 45:0.0 46:0.04970524460077286 47:0.0 48:0.036418091505765915 49:0.055293139070272446 50:0.0407731793820858 51:0.02879103273153305 52:0.027614077553153038 53:0.0221328716725111 54:0.006786111276596785 55:0.017167653888463974 56:0.014395516365766525 57:0.26356059312820435 58:0.0787636935710907 59:0.3682078719139099 60:0.014395516365766525 61:0.006069682072848082 62:0.009597010910511017 63:0.0 64:0.021807806566357613 65:0.009597010910511017 66:0.16313157975673676 67:0.4246879518032074 68:0.5573192834854126 69:0.45658308267593384 70:0.20806661248207092 71:0.014395516365766525 72:0.0 73:0.18284325301647186 74:0.13009491562843323 75:0.18477195501327515 76:0.044801440089941025 77:0.0799434557557106 78:0.08819988369941711 79:0.13609057664871216 80:0.0771750956773758 81:0.03889283165335655 82:0.14858584105968475 83:0.08250415325164795 84:0.11305711418390274 85:0.21078698337078094 86:0.14809687435626984 87:0.14105629920959473 88:0.07435253262519836 89:0.049673713743686676 90:0.02535502426326275 91:0.04919597506523132 92:0.049673713743686676 93:0.10130377858877182 94:0.1975548416376114 95:0.12913943827152252 96:0.4502074122428894 97:0.5259283781051636 98:0.013750692829489708 99:0.0 100:0.04404440522193909 101:0.09092579036951065 102:0.20958197116851807 103:0.3147909343242645 104:0.1598869115114212 105:0.04694780334830284 106:0.06565583497285843 107:0.027501385658979416 108:0.019446415826678276 109:0.2044704556465149 110:0.014029220677912235 111:0.02340107224881649 112:0.0 113:0.028233259916305542 114:0.011974688619375229 115:0.02440035715699196 116:0.01617727428674698 117:0.06159882992506027 118:0.35921379923820496 119:0.2496039867401123 120:0.18761314451694489 121:0.01898929849267006 122:0.010979601182043552 123:0.034829143434762955 124:0.04667476937174797 125:0.0689602941274643 126:0.07267967611551285 127:0.11070771515369415 128:0.01052191574126482 129:0.01330928597599268 130:0.014934535138309002 131:0.04391840472817421 132:0.02394937537610531 133:0.011091072112321854 134:0.005655359476804733 135:0.14243736863136292 136:0.4587903916835785 137:0.049856215715408325 138:0.015527501702308655 139:0.03381739556789398 140:0.00941108725965023 141:0.029470842331647873 142:0.05437884479761124 143:0.017536524683237076 144:0.6761032938957214 145:0.045517027378082275 146:0.03978659585118294 147:0.22046823799610138 148:0.31138744950294495 149:0.20179177820682526 150:0.06011004000902176 151:0.09513930976390839 152:0.04741888865828514 153:0.04627618193626404 154:0.09126245230436325 155:0.38126346468925476 156:0.2179316133260727 157:0.227347269654274 158:0.1249832734465599 159:0.0889296904206276 160:0.017724785953760147 161:0.03329561650753021 162:0.09266499429941177 163:0.045485127717256546 164:0.010630478151142597 165:0.03576171398162842 166:0.26481616497039795 167:0.16222865879535675 168:0.09659094363451004 169:0.06835378706455231 170:0.13727213442325592 171:0.0075055696070194244 172:0.010748766362667084 173:0.19639010727405548 174:0.48457109928131104 175:0.31167614459991455 176:0.05548898130655289 177:0.006325940135866404 178:0.0 179:0.005307239014655352 180:0.0 181:0.5121180415153503 182:0.3676309883594513 183:0.07352510094642639 184:0.0409710593521595 185:0.08389327675104141 186:0.16195480525493622 187:0.4849453568458557 188:0.06866904348134995 189:0.11474920809268951 190:0.014320101588964462 191:0.010200794786214828 192:0.07188264280557632 193:0.039541568607091904 194:0.048213329166173935 195:0.04324740543961525 196:0.02506215311586857 197:0.003163132118061185 198:0.004473344422876835 199:0.1907413750886917 200:0.3336470425128937 201:0.3685723543167114 202:0.06159834936261177 203:0.03826463595032692 204:0.00632626423612237 205:0.0071009378880262375 206:0.017107225954532623 207:0.02885962836444378 208:0.047029945999383926 209:0.02601645328104496 210:0.03560105711221695 211:0.02969905361533165 212:0.031121104955673218 213:0.027382774278521538 214:0.019104178994894028 215:0.010236110538244247 216:0.005832527298480272 217:0.09453444182872772 218:0.006123705301433802 219:0.01549188420176506 220:0.009185558184981346 221:0.028755344450473785 222:0.013515671715140343 223:0.0038729712832719088 224:0.01716989278793335 225:0.02372998557984829 226:0.7503471374511719 227:0.19237688183784485 228:0.13274763524532318 229:0.011312211863696575 230:0.01780092716217041 231:0.09875627607107162 232:0.24720479547977448 233:0.007998942397534847 234:0.4693947434425354 235:0.04545192793011665 236:0.014122647233307362 237:0.01655600219964981 238:0.0282996017485857 239:0.030124647542834282 240:0.012247410602867603 241:0.011618913151323795 242:0.006123705301433802 243:0.014298783615231514 244:0.22896996140480042 245:0.09217692911624908 246:0.024259697645902634 247:0.038275495171546936 248:0.037003740668296814 249:0.09269625693559647 250:0.013555399142205715 251:0.011039666831493378 252:0.03800492361187935 253:0.13063308596611023 254:0.09484916180372238 255:0.17036175727844238 256:0.21473507583141327 257:0.1650279462337494 258:0.21392062306404114 259:0.01558769028633833 260:0.06711207330226898 261:0.13227611780166626 262:0.5527650713920593 263:0.372531920671463 264:0.3558082580566406 265:0.09994573891162872 266:0.06312629580497742 267:0.004226806107908487 268:0.0490829274058342 269:0.04431777447462082 270:0.18832257390022278 271:0.12288408726453781 272:0.13565921783447266 273:0.07144735008478165 274:0.1358788013458252 275:0.09797050803899765 276:0.12853771448135376 277:0.12467700988054276 278:0.09928622096776962 279:0.02336892858147621 280:0.20135751366615295 281:0.040850475430488586 282:0.0772276446223259 283:0.06701640039682388 284:0.022722769528627396 285:0.03428637236356735 286:0.038141876459121704 287:0.050556380301713943 288:0.10626977682113647 289:0.1233767494559288 290:0.09293309599161148 291:0.18710961937904358 292:0.08250528573989868 293:0.12655405700206757 294:0.031053753569722176 295:0.08135202527046204 296:0.03360366448760033 297:0.0 298:0.12983736395835876 299:0.18661411106586456 300:0.331084668636322 301:0.17033858597278595 302:0.19605962932109833 303:0.17738820612430573 304:0.06588716804981232 305:0.03360366448760033 306:0.023717988282442093 307:0.08685646206140518 308:0.03360366448760033 309:0.008135202340781689 310:0.04924461618065834 311:0.110248863697052 312:0.11487144976854324 313:0.39634376764297485 314:0.28985732793807983 315:0.13695436716079712 316:0.21859337389469147 317:0.012862885370850563 318:0.2591578960418701 319:0.2527339458465576 320:0.12175377458333969 321:0.054741404950618744 322:0.15090401470661163 323:0.31505030393600464 324:0.1677221953868866 
0.0775550644215623 0.17347502236407658 0.005053226402586112 0.3291117067122784 0.10354774948631577 1:0.6814289689064026 2:0.023024050518870354 3:0.027690446004271507 4:0.004102315753698349 5:0.05532056465744972 6:0.02560928277671337 7:0.025945322588086128 8:0.05455393344163895 9:0.11245184391736984 10:0.06173304095864296 11:0.004102315753698349 12:0.0051890648901462555 13:0.11640829592943192 14:0.08124443143606186 15:0.03967897966504097 16:0.08207686245441437 17:0.0603734515607357 18:0.055281490087509155 19:0.6375392079353333 20:0.028094790875911713 21:0.029965577647089958 22:0.024613894522190094 23:0.014676891267299652 24:0.012306948192417622 25:0.020756259560585022 26:0.052662890404462814 27:0.2195252925157547 28:0.0874176025390625 29:0.004102315753698349 30:0.020756257697939873 31:0.02971159853041172 32:0.012842279858887196 33:0.005801551043987274 34:0.04436395689845085 35:0.04362083598971367 36:0.041930001229047775 37:0.05404265597462654 38:0.02059667371213436 39:0.004327180329710245 40:0.05460986867547035 41:0.23515859246253967 42:0.029667509719729424 43:0.08495388180017471 44:0.0289281215518713 45:0.04273146018385887 46:0.07087143510580063 47:0.0068418728187680244 48:0.004327180329710245 49:0.09073667973279953 50:0.31693899631500244 51:0.019991641864180565 52:0.04226688668131828 53:0.0610586516559124 54:0.039760395884513855 55:0.06301619112491608 56:0.017104681581258774 57:0.016334043815732002 58:0.04271135479211807 59:0.1775706261396408 60:0.006307894829660654 61:0.06957264244556427 62:0.034460537135601044 63:0.05909711867570877 64:0.3064482510089874 65:0.013217007741332054 66:0.15694792568683624 67:0.3685818612575531 68:0.6117488741874695 69:0.016517743468284607 70:0.15686514973640442 71:0.303777277469635 72:0.113640196621418 73:0.08941391855478287 74:0.012390530668199062 75:0.01044861227273941 76:0.004130176734179258 77:0.5961399078369141 78:0.031688105314970016 79:0.06556247919797897 80:0.028285594657063484 81:0.05789271742105484 82:0.07832933217287064 83:0.008260353468358517 84:0.01044861227273941 85:0.018231481313705444 86:0.745530903339386 87:0.0240724328905344 88:0.06499236822128296 89:0.0790327787399292 90:0.02106255106627941 91:0.10105466842651367 92:0.028997022658586502 93:0.0 94:0.004130176734179258 95:0.03140021115541458 96:0.03233278915286064 97:0.03657013922929764 98:0.09612032026052475 99:0.05569925904273987 100:0.11450795829296112 101:0.03494530916213989 102:0.014496169053018093 103:0.009946783073246479 104:0.009235356003046036 105:0.019942259415984154 106:0.03134583681821823 107:0.09069336205720901 108:0.04266137629747391 109:0.5131494998931885 110:0.03509612753987312 111:0.02765028364956379 112:0.030324628576636314 113:0.006517235189676285 114:0.00485766027122736 115:0.041627537459135056 116:0.032121043652296066 117:0.44582605361938477 118:0.1107453852891922 119:0.03227617219090462 120:0.033794794231653214 121:0.053129229694604874 122:0.04127582535147667 123:0.0331701822578907 124:0.009216762147843838 125:0.03797057643532753 126:0.026904024183750153 127:0.5386531949043274 128:0.025380805134773254 129:0.06987437605857849 130:0.04345633462071419 131:0.023896530270576477 132:0.01658509112894535 133:0.020121758803725243 134:0.03995378687977791 135:0.43714621663093567 136:0.07855935394763947 137:0.04496657848358154 138:0.058677032589912415 139:0.020655877888202667 140:0.02824135310947895 141:0.05941466987133026 142:0.026266267523169518 143:0.0272402074187994 144:0.022696619853377342 145:0.1579914540052414 146:0.07813654094934464 147:0.14534834027290344 148:0.08857815712690353 149:0.17693664133548737 150:0.16547657549381256 151:0.012385989539325237 152:0.09005703777074814 153:0.08836109191179276 154:0.11209479719400406 155:0.39503929018974304 156:0.10398580878973007 157:0.1783784180879593 158:0.19501453638076782 159:0.03273170441389084 160:0.09224961698055267 161:0.10488998144865036 162:0.020262625068426132 163:0.37029677629470825 164:0.11818014830350876 165:0.07402091473340988 166:0.04392889142036438 167:0.04612960293889046 168:0.0 169:0.006380894687026739 170:0.05024026706814766 171:0.14580652117729187 172:0.0542750284075737 173:0.14383667707443237 174:0.6177511811256409 175:0.07125750184059143 176:0.006006075534969568 177:0.010438760742545128 178:0.001154986908659339 179:6.087315850891173E-4 180:0.0 181:0.5950449705123901 182:0.193260058760643 183:0.4167262017726898 184:0.0429801307618618 185:0.0 186:0.01695614494383335 187:0.18099115788936615 188:0.3182344138622284 189:0.178378626704216 190:0.1548428237438202 191:0.0169561468064785 192:0.03574668988585472 193:0.024949349462985992 194:0.022749057039618492 195:0.01130409725010395 196:0.057194702327251434 197:0.06794197857379913 198:0.07616518437862396 199:0.21768493950366974 200:0.3416447043418884 201:0.096872478723526 202:0.0169561468064785 203:0.022749057039618492 204:0.005652048625051975 205:0.007149338722229004 206:0.05882832407951355 207:0.03197281435132027 208:0.163943350315094 209:0.10579397529363632 210:0.04647069796919823 211:0.053209591656923294 212:0.017693709582090378 213:0.024067116901278496 214:0.014298677444458008 215:0.04320644587278366 216:0.039258792996406555 217:0.19677677750587463 218:0.02574334107339382 219:0.02639995701611042 220:0.025054169818758965 221:0.0014883442781865597 222:0.006136600393801928 223:0.0063145095482468605 224:0.0016640194226056337 225:0.2668819725513458 226:0.04861576855182648 227:0.03370559215545654 228:0.2454274743795395 229:0.28056541085243225 230:0.3465271592140198 231:0.2402416616678238 232:0.3666400909423828 233:0.22316713631153107 234:0.13013719022274017 235:0.21090498566627502 236:0.022380739450454712 237:0.030520129948854446 238:0.010450625792145729 239:0.003720860695466399 240:0.0016640194226056337 241:0.002104836516082287 242:0.002683150814846158 243:0.3195975720882416 244:0.1357986032962799 245:0.04236755147576332 246:0.08386670798063278 247:0.03802924230694771 248:0.011906754225492477 249:0.007345336955040693 250:0.010027118027210236 251:0.010018679313361645 252:0.4350452721118927 253:0.3927339017391205 254:0.2480376660823822 255:0.13124531507492065 256:0.3539828062057495 257:0.5679785013198853 258:0.13919121026992798 259:0.12037058174610138 260:0.025920631363987923 261:0.10725078731775284 262:0.2120136022567749 263:0.07485033571720123 264:0.029566343873739243 265:0.010370044969022274 266:0.0468875952064991 267:0.017603784799575806 268:0.032671380788087845 269:0.003677905770018697 270:0.21614021062850952 271:0.04455723613500595 272:0.10881107300519943 273:0.15497294068336487 274:0.03126969188451767 275:0.021431932225823402 276:0.005806306842714548 277:0.002875232370570302 278:0.012561790645122528 279:0.016977092251181602 280:0.23156684637069702 281:0.0032545423600822687 282:0.014607003889977932 283:0.031203746795654297 284:0.05409567803144455 285:0.05434548482298851 286:0.011425268836319447 287:0.0 288:0.265768438577652 289:0.21431474387645721 290:0.14529581367969513 291:0.11879432201385498 292:0.018797848373651505 293:0.02785719558596611 294:0.04860721528530121 295:0.05687559396028519 296:0.03591403737664223 297:0.10065848380327225 298:0.15506567060947418 299:0.14093703031539917 300:0.061800096184015274 301:0.0408208929002285 302:0.045267943292856216 303:0.029763471335172653 304:0.06665576994419098 305:0.11549129337072372 306:0.06785257905721664 307:0.0179758220911026 308:0.06584270298480988 309:0.11357492208480835 310:0.13769182562828064 311:0.4512811303138733 312:0.6280951499938965 313:0.04702659323811531 314:0.020304245874285698 315:0.0 316:0.17487311363220215 317:0.32747745513916016 318:0.1582077145576477 319:0.13857004046440125 320:0.056290775537490845 321:0.04647008702158928 322:0.01747957244515419 323:0.02812771499156952 324:0.014357269741594791 
0.0 0.00548970212894324 0.0 0.003555315847293598 0.0 1:0.30820968747138977 2:0.08074220269918442 3:0.06383232027292252 4:0.21511445939540863 5:0.2076268196105957 6:0.11796251684427261 7:0.10914699733257294 8:0.23898328840732574 9:0.13836795091629028 10:0.15492822229862213 11:0.06055665761232376 12:0.10213169455528259 13:0.0891033336520195 14:0.19859956204891205 15:0.28164270520210266 16:0.2821263074874878 17:0.06055665761232376 18:0.0 19:0.2623523473739624 20:0.1258784681558609 21:0.15446169674396515 22:0.10658679157495499 23:0.16249054670333862 24:0.2530960142612457 25:0.2436484843492508 26:0.020185550674796104 27:0.09237899631261826 28:0.0631907731294632 29:0.0 30:0.14043109118938446 31:0.13814806938171387 32:0.27984485030174255 33:0.12601114809513092 34:0.17297931015491486 35:0.020185550674796104 36:0.09431367367506027 37:0.03158274292945862 38:0.0315784253180027 39:0.02030215412378311 40:0.01605026237666607 41:0.03158274292945862 42:0.016878848895430565 43:0.014211507514119148 44:0.0128402104601264 45:0.0 46:0.02463780716061592 47:0.018016263842582703 48:0.019387561827898026 49:0.03754017502069473 50:0.03876063972711563 51:0.02191960997879505 52:0.020302152261137962 53:0.0064201052300632 54:0.0 55:0.014474604278802872 56:0.10205923765897751 57:0.1922924518585205 58:0.23299744725227356 59:0.46138080954551697 60:0.022389845922589302 61:0.00203021545894444 62:0.0 63:0.0 64:0.021766649559140205 65:0.05939033254981041 66:0.6528341174125671 67:0.2485935240983963 68:0.3890845477581024 69:0.13272765278816223 70:0.07752365618944168 71:0.04173068702220917 72:0.08073963969945908 73:0.0404512844979763 74:0.015075304545462132 75:0.046240564435720444 76:0.050608132034540176 77:0.09681961685419083 78:0.01931603066623211 79:0.03495968133211136 80:0.005025101359933615 81:0.0 82:0.036321382969617844 83:0.018152935430407524 84:0.01589076593518257 85:0.050648581236600876 86:0.15300196409225464 87:0.08942969888448715 88:0.05291156843304634 89:0.02010040543973446 90:0.0 91:0.10089943557977676 92:0.03517570719122887 93:0.06848762929439545 94:0.04946663975715637 95:0.031462110579013824 96:0.01005020271986723 97:0.8609409928321838 98:0.36998245120048523 99:0.19096913933753967 100:0.056911710649728775 101:0.023178035393357277 102:0.025425221771001816 103:0.030663328245282173 104:0.0404512844979763 105:0.01715676859021187 106:0.027171649038791656 107:0.030150607228279114 108:0.014213132672011852 109:0.1205582246184349 110:0.021120820194482803 111:0.06277813762426376 112:0.04697507247328758 113:0.05667310953140259 114:0.014080547727644444 115:0.0400739349424839 116:0.014080547727644444 117:0.06437643617391586 118:0.5049747228622437 119:0.007040273863822222 120:0.0311686173081398 121:0.014080547727644444 122:0.08186116069555283 123:0.031077271327376366 124:0.0445265956223011 125:0.007040273863822222 126:0.23701032996177673 127:0.22815431654453278 128:0.007040273863822222 129:0.05587869882583618 130:0.0 131:0.05982161685824394 132:0.04224164038896561 133:0.062337230890989304 134:0.032472919672727585 135:0.11416589468717575 136:0.34787675738334656 137:0.021120822057127953 138:0.0222632996737957 139:0.0 140:0.04722759127616882 141:0.048073992133140564 142:0.035621277987957 143:0.014080547727644444 144:0.6639946699142456 145:0.18035992980003357 146:0.054308172315359116 147:0.028776565566658974 148:0.2957930266857147 149:0.1241842731833458 150:0.2684238851070404 151:0.22110280394554138 152:0.10759303718805313 153:0.08069124072790146 154:0.1366397887468338 155:0.1691480278968811 156:0.26492834091186523 157:0.24151481688022614 158:0.10309567302465439 159:0.15481315553188324 160:0.03858274593949318 161:0.02943320944905281 162:0.02658015489578247 163:0.07205859571695328 164:0.11681272089481354 165:0.06127426028251648 166:0.04427860677242279 167:0.026961995288729668 168:0.0574670135974884 169:0.0164584219455719 170:0.043590616434812546 171:0.1702679544687271 172:0.0329645574092865 173:0.5335286855697632 174:0.38155871629714966 175:0.11901548504829407 176:0.05085793137550354 177:0.0 178:6.681921659037471E-4 179:0.0 180:0.021782074123620987 181:0.7466197609901428 182:0.3130374550819397 183:0.11163464188575745 184:0.004749498795717955 185:0.04909488558769226 186:0.01760689914226532 187:0.14702825248241425 188:0.08588794618844986 189:0.20517927408218384 190:0.02124040387570858 191:0.008578666485846043 192:0.01952500268816948 193:0.015845123678445816 194:0.03079858422279358 195:0.00949899759143591 196:0.011338784359395504 197:0.012407834641635418 198:0.0 199:0.08171160519123077 200:0.051066961139440536 201:0.49020832777023315 202:0.0138410534709692 203:0.012744242325425148 204:0.04119127243757248 205:0.015019232407212257 206:0.02540278621017933 207:0.011095626279711723 208:0.030039647594094276 209:0.019532084465026855 210:0.03934744372963905 211:0.009128320030868053 212:0.01062020193785429 213:0.007124248426407576 214:0.006007693242281675 215:0.004749498795717955 216:0.004378821235150099 217:0.0561927929520607 218:0.002266442170366645 219:0.011528341099619865 220:0.01303290668874979 221:0.006588294170796871 222:0.002266442170366645 223:0.011861230246722698 224:0.002266442170366645 225:0.01730523444712162 226:0.12157990783452988 227:0.17756377160549164 228:0.34398868680000305 229:0.12852829694747925 230:0.02661590650677681 231:0.005666105076670647 232:0.05033204331994057 233:0.004787749145179987 234:0.14648431539535522 235:0.1278718262910843 236:0.00453288434073329 237:0.013355606235563755 238:0.010473955422639847 239:0.011149421334266663 240:0.003399663371965289 241:0.00938822329044342 242:0.005226926878094673 243:0.02217327058315277 244:0.19774369895458221 245:0.07300794124603271 246:0.6519256234169006 247:0.048250336199998856 248:0.02239762246608734 249:0.10213090479373932 250:0.06863714754581451 251:0.4925094544887543 252:0.20675644278526306 253:0.1020759642124176 254:0.0627322793006897 255:0.22675761580467224 256:0.1425638496875763 257:0.08229628205299377 258:0.037826988846063614 259:0.017678631469607353 260:0.09247823059558868 261:0.15081872045993805 262:0.2223992794752121 263:0.07492977380752563 264:0.09793718159198761 265:0.056286051869392395 266:0.01827341504395008 267:0.010961897671222687 268:0.13844820857048035 269:0.2750699520111084 270:0.4051390588283539 271:0.0033778923097997904 272:0.002832448808476329 273:0.07539460062980652 274:0.12022015452384949 275:0.22792647778987885 276:0.016037367284297943 277:0.005105191376060247 278:0.008739840239286423 279:0.0030761549714952707 280:0.04091968014836311 281:0.002832448808476329 282:0.009285119362175465 283:0.0506591796875 284:0.009319211356341839 285:0.0018882992444559932 286:0.003910926170647144 287:0.42197611927986145 288:0.5402290225028992 289:0.06268810480833054 290:0.10889258980751038 291:0.18916650116443634 292:0.10924637317657471 293:0.13335587084293365 294:0.04701023921370506 295:0.050849635154008865 296:0.06389845907688141 297:0.0 298:0.11984062194824219 299:0.045113034546375275 300:0.18243098258972168 301:0.13953328132629395 302:0.10001690685749054 303:0.015061011537909508 304:0.026941955089569092 305:0.031949229538440704 306:0.0 307:0.3248535394668579 308:0.10743959248065948 309:0.1010323241353035 310:0.13038097321987152 311:0.21432194113731384 312:0.021299486979842186 313:0.033677443861961365 314:0.6268495917320251 315:0.34410372376441956 316:0.17513540387153625 317:0.10483340173959732 318:0.21065403521060944 319:0.18305395543575287 320:0.05715251713991165 321:0.0 322:0.013470977544784546 323:0.031949229538440704 324:0.03927430883049965 
0.0 0.0 0.0 0.047430545113790364 0.0 1:0.13753214478492737 2:0.076289102435112 3:0.19449980556964874 4:0.19498994946479797 5:0.29622307419776917 6:0.09462498873472214 7:0.14961524307727814 8:0.04731249436736107 9:0.0 10:0.08593755215406418 11:0.08545704931020737 12:0.35381802916526794 13:0.2325037270784378 14:0.14811153709888458 15:0.1990487277507782 16:0.18775977194309235 17:0.06180080398917198 18:0.0 19:0.5047319531440735 20:0.04731249436736107 21:0.15783675014972687 22:0.09462498873472214 23:0.20100851356983185 24:0.13787871599197388 25:0.0448845736682415 26:0.023656247183680534 27:0.0 28:0.17984972894191742 29:0.04731249436736107 30:0.089769147336483 31:0.057111237198114395 32:0.27506428956985474 33:0.04731249436736107 34:0.06806760281324387 35:0.04731249436736107 36:0.0 37:0.05592232942581177 38:0.007736912928521633 39:0.07877656817436218 40:0.03868456184864044 41:0.10034152120351791 42:0.09447397291660309 43:0.029359517619013786 44:0.023210739716887474 45:0.0 46:0.017300263047218323 47:0.012475396506488323 48:0.07877657562494278 49:0.04188929498195648 50:0.08304125815629959 51:0.08124348521232605 52:0.09118358045816422 53:0.030947651714086533 54:0.010941646993160248 55:0.07992382347583771 56:0.03868456184864044 57:0.06140792742371559 58:0.0406816340982914 59:0.13505007326602936 60:0.03735712170600891 61:0.034252770245075226 62:0.007736912928521633 63:0.0 64:0.15158969163894653 65:0.015473825857043266 66:0.5477259159088135 67:0.07736913114786148 68:0.5753532648086548 69:0.05057866871356964 70:0.48801857233047485 71:0.04642147943377495 72:0.010941646993160248 73:0.10353831201791763 74:0.1299387514591217 75:0.08785516768693924 76:0.2467261105775833 77:0.39344558119773865 78:0.20042237639427185 79:0.17571033537387848 80:0.06945561617612839 81:0.0 82:0.11389214545488358 83:0.06945561617612839 84:0.02928505651652813 85:0.04630374163389206 86:0.18636897206306458 87:0.3069503903388977 88:0.19035285711288452 89:0.1299387514591217 90:0.06548338383436203 91:0.3427017033100128 92:0.06945561617612839 93:0.0732126459479332 94:0.14488723874092102 95:0.2174304574728012 96:0.2043946236371994 97:0.11714022606611252 98:0.04630374163389206 99:0.032741691917181015 100:0.26052597165107727 101:0.02315187081694603 102:0.27965790033340454 103:0.1620630919933319 104:0.1656613051891327 105:0.02315187081694603 106:0.04392758384346962 107:0.09260748326778412 108:0.0 109:0.1776755303144455 110:0.014139709062874317 111:0.03129957988858223 112:0.014139709062874317 113:0.05374949797987938 114:0.014139709062874317 115:0.022356843575835228 116:0.007069854531437159 117:0.057265765964984894 118:0.6736459136009216 119:0.021209564059972763 120:0.04024231433868408 121:0.038277704268693924 122:0.03477908670902252 123:0.01706814020872116 124:0.022356843575835228 125:0.01846965402364731 126:0.2949705123901367 127:0.2560713589191437 128:0.021209564059972763 129:0.04918505251407623 130:0.021209564059972763 131:0.060072965919971466 132:0.024137994274497032 133:0.017885474488139153 134:0.02553950808942318 135:0.07087251543998718 136:0.2703039050102234 137:0.007069854531437159 138:0.049185048788785934 139:0.014139709062874317 140:0.04110255464911461 141:0.03413628041744232 142:0.03577094525098801 143:0.0 144:0.5044854283332825 145:0.03757426142692566 146:0.03305821493268013 147:0.20265014469623566 148:0.19515934586524963 149:0.14460448920726776 150:0.057573940604925156 151:0.018097305670380592 152:0.04017315059900284 153:0.05895071476697922 154:0.008435182273387909 155:0.2164882868528366 156:0.1935080736875534 157:0.14025473594665527 158:0.08773288875818253 159:0.03245675563812256 160:0.08422808349132538 161:0.10381271690130234 162:0.10930178314447403 163:0.06606084853410721 164:0.0089451028034091 165:0.035944864153862 166:0.18027088046073914 167:0.1103084534406662 168:0.16861934959888458 169:0.1473303735256195 170:0.2207084596157074 171:0.0924789309501648 172:0.08711649477481842 173:0.34402206540107727 174:0.6523033380508423 175:0.1876262128353119 176:0.03726360201835632 177:0.014946210198104382 178:0.0034326643217355013 179:0.0017163321608677506 180:0.0 181:0.6756883263587952 182:0.01114565134048462 183:0.011485795490443707 184:0.011172931641340256 185:0.08371122181415558 186:0.05918796360492706 187:0.25653886795043945 188:0.15896014869213104 189:0.1834171712398529 190:0.04244137555360794 191:0.006544951815158129 192:0.018627258017659187 193:0.025180278345942497 194:0.023415932431817055 195:0.0032724759075790644 196:0.016557563096284866 197:0.018366612493991852 198:0.009255959652364254 199:0.41121259331703186 200:0.44534987211227417 201:0.02069695293903351 202:0.013089903630316257 203:0.02487942762672901 204:0.007881165482103825 205:0.018627258017659187 206:0.01182166114449501 207:0.17121824622154236 208:0.030913574621081352 209:0.006544951815158129 210:0.031250372529029846 211:0.02234586328268051 212:0.02487942762672901 213:0.02832934819161892 214:0.030317993834614754 215:0.01182166114449501 216:0.01671835221350193 217:0.15041542053222656 218:0.027529533952474594 219:0.017411205917596817 220:0.0 221:0.039397064596414566 222:0.040821969509124756 223:0.03134017065167427 224:0.016517721116542816 225:0.12172974646091461 226:0.059398721903562546 227:0.011011813767254353 228:0.04370041564106941 229:0.022023627534508705 230:0.046784013509750366 231:0.03531606122851372 232:0.02280697226524353 233:0.016517721116542816 234:0.0 235:0.2686568796634674 236:0.005505906883627176 237:0.05758071690797806 238:0.026584869250655174 239:0.02954779751598835 240:0.011011813767254353 241:0.027857929468154907 242:0.0 243:0.08943817019462585 244:0.05457054078578949 245:0.0 246:0.806573748588562 247:0.44677698612213135 248:0.073869489133358 249:0.028950732201337814 250:0.02089344710111618 251:0.01876588724553585 252:0.022764215245842934 253:0.16256505250930786 254:0.12363509833812714 255:0.10014761239290237 256:0.02289937250316143 257:0.09796677529811859 258:0.1165727823972702 259:0.04883556067943573 260:0.08085808902978897 261:0.3342050015926361 262:0.22951294481754303 263:0.08425437659025192 264:0.1302747130393982 265:0.008365221321582794 266:0.0 267:0.010170498862862587 268:0.01803850382566452 269:0.10285095125436783 270:0.5477460622787476 271:0.32301193475723267 272:0.32202327251434326 273:0.12962445616722107 274:0.07244902849197388 275:0.11295662820339203 276:0.04068852216005325 277:0.06862717121839523 278:0.04401549696922302 279:0.17444197833538055 280:0.12318804860115051 281:0.06132005155086517 282:0.07146552205085754 283:0.07166315615177155 284:0.0706077292561531 285:0.1259642243385315 286:0.13818451762199402 287:0.22465337812900543 288:0.12209571897983551 289:0.07528390735387802 290:0.005207803566008806 291:0.051215481013059616 292:0.030353302136063576 293:0.048909012228250504 294:0.019937695935368538 295:0.04792178049683571 296:0.02922854572534561 297:0.007364946883171797 298:0.07286367565393448 299:0.03964415192604065 300:0.03145325928926468 301:0.04597671329975128 302:0.030277008190751076 303:0.012572751380503178 304:0.009881112724542618 305:0.020831214264035225 306:0.04133540391921997 307:0.4792519807815552 308:0.16900131106376648 309:0.024865850806236267 310:0.0526094026863575 311:0.1539253294467926 312:0.005207803566008806 313:0.6104846000671387 314:0.37671729922294617 315:0.3712998032569885 316:0.05470084398984909 317:0.03768401965498924 318:0.14067989587783813 319:0.08374490588903427 320:0.04658001288771629 321:0.0 322:0.009881112724542618 323:0.010415607132017612 324:0.007364946883171797 
0.0 0.11250283471307622 0.0 0.0 0.0 1:0.4071471691131592 2:0.07481741905212402 3:0.0781872496008873 4:0.07611563056707382 5:0.04440069943666458 6:0.0 7:0.05840576812624931 8:0.01136772707104683 9:0.48963817954063416 10:0.08590295165777206 11:0.07208521664142609 12:0.036049507558345795 13:0.14166685938835144 14:0.15156039595603943 15:0.04109020531177521 16:0.026752734556794167 17:0.01409993041306734 18:0.04985078051686287 19:0.40872588753700256 20:0.05798528343439102 21:0.03366167098283768 22:0.07634003460407257 23:0.05359828472137451 24:0.00704996520653367 25:0.047038037329912186 26:0.02819986082613468 27:0.5377985239028931 28:0.1483650952577591 29:0.06071748584508896 30:0.035670313984155655 31:0.02407008595764637 32:0.05675112456083298 33:0.041090209037065506 34:0.058405764400959015 35:0.03251762315630913 36:0.0 37:0.07025007158517838 38:0.01582777127623558 39:0.03276926279067993 40:0.052576467394828796 41:0.1570427417755127 42:0.0 43:0.027503259479999542 44:0.010294593870639801 45:0.0 46:0.0669851154088974 47:0.03508707508444786 48:0.021702907979488373 49:0.03172866255044937 50:0.2406606823205948 51:0.013190492987632751 52:0.030598970130085945 53:0.008964709006249905 54:0.02874644473195076 55:0.055246587842702866 56:0.02477611042559147 57:0.014214341528713703 58:0.0195179246366024 59:0.31434449553489685 60:0.04004589095711708 61:0.040210478007793427 62:0.04819893464446068 63:0.009705835953354836 64:0.029844913631677628 65:0.03036396950483322 66:0.4204118549823761 67:0.4949459433555603 68:0.21694731712341309 69:0.5266016721725464 70:0.11754240095615387 71:0.16639572381973267 72:0.014558754861354828 73:0.04368015378713608 74:0.06357084959745407 75:0.04298200085759163 76:0.0497802272439003 77:0.586309552192688 78:0.02168182283639908 79:0.016245529055595398 80:0.1058613508939743 81:0.024027671664953232 82:0.06445228308439255 83:0.06834932416677475 84:0.029095614328980446 85:0.02168182283639908 86:0.7231828570365906 87:0.04198948293924332 88:0.03940017148852348 89:0.01479529682546854 90:0.03203689679503441 91:0.11991310864686966 92:0.031785428524017334 93:0.025072837248444557 94:0.03544210270047188 95:0.06856394559144974 96:0.01699013076722622 97:0.04485415667295456 98:0.2098875790834427 99:0.031424496322870255 100:0.12900377810001373 101:0.0465807244181633 102:0.02507283352315426 103:0.0419560968875885 104:0.03545834496617317 105:0.03964363411068916 106:0.043336670845746994 107:0.02045867219567299 108:0.010442749597132206 109:0.3342391550540924 110:0.08260340243577957 111:0.07857191562652588 112:0.053996436297893524 113:0.035089731216430664 114:0.0 115:0.008270728401839733 116:0.0 117:0.4451390206813812 118:0.4434667229652405 119:0.05631324648857117 120:0.060167521238327026 121:0.06707361340522766 122:0.03801387548446655 123:0.05230868235230446 124:0.012406093068420887 125:0.01961575634777546 126:0.16323167085647583 127:0.319680780172348 128:0.07726409286260605 129:0.08911506831645966 130:0.0567048117518425 131:0.035089731216430664 132:0.009246956557035446 133:0.016541456803679466 134:0.006538585294038057 135:0.4306628704071045 136:0.2627454400062561 137:0.05230868235230446 138:0.08943433314561844 139:0.07512163370847702 140:0.026317298412322998 141:0.03269292786717415 142:0.008270728401839733 143:0.01961575634777546 144:0.19887657463550568 145:0.03963202238082886 146:0.12576714158058167 147:0.2593379020690918 148:0.096987783908844 149:0.167033851146698 150:0.04936474934220314 151:0.09433694183826447 152:0.11430540680885315 153:0.05821473151445389 154:0.09957638382911682 155:0.1252131164073944 156:0.2107318490743637 157:0.15745292603969574 158:0.1280931681394577 159:0.15663401782512665 160:0.1088263988494873 161:0.07453231513500214 162:0.013200785964727402 163:0.02852003276348114 164:0.0013272652868181467 165:0.0183397363871336 166:0.14880824089050293 167:0.09553516656160355 168:0.05955415964126587 169:0.15453322231769562 170:0.23266153037548065 171:0.19116675853729248 172:0.022181762382388115 173:0.06577394902706146 174:0.6728845834732056 175:0.2967507839202881 176:0.024901216849684715 177:0.0 178:0.008840024471282959 179:0.008560603484511375 180:0.0 181:0.24256674945354462 182:0.1252414733171463 183:0.21447132527828217 184:0.16450437903404236 185:0.08825713396072388 186:0.3653019368648529 187:0.021256372332572937 188:0.3088192343711853 189:0.3998733162879944 190:0.048249755054712296 191:0.041719142347574234 192:0.026929223909974098 193:0.015436896122992039 194:0.006903589237481356 195:0.009889669716358185 196:0.009763149544596672 197:0.01347143854945898 198:0.0 199:0.05279932916164398 200:0.24627327919006348 201:0.6177390813827515 202:0.013488348573446274 203:0.018409572541713715 204:0.014995470643043518 205:0.009763149544596672 206:0.002572815865278244 207:0.0 208:0.04980408772826195 209:0.021739795804023743 210:0.012284498661756516 211:0.008784143254160881 212:0.020710768178105354 213:0.009849837981164455 214:0.01806022971868515 215:0.009294172748923302 216:0.0 217:0.2963089346885681 218:0.05589105933904648 219:0.05448572710156441 220:0.06196722388267517 221:0.01528119295835495 222:0.021547533571720123 223:0.03704720363020897 224:0.020623432472348213 225:0.2524746358394623 226:0.18190325796604156 227:0.07061336189508438 228:0.057267289608716965 229:0.03054838441312313 230:0.0305623859167099 231:0.025775495916604996 232:0.021610869094729424 233:0.02267109975218773 234:0.19113369286060333 235:0.30345839262008667 236:0.04104435071349144 237:0.04800548776984215 238:0.030472813174128532 239:0.037111468613147736 240:0.009762795642018318 241:0.009261800907552242 242:0.0 243:0.2508147656917572 244:0.09870877861976624 245:0.10257647931575775 246:0.4370652139186859 247:0.028450870886445045 248:0.0305623859167099 249:0.03416978567838669 250:0.012349068187177181 251:0.06378190219402313 252:0.6121567487716675 253:0.0883885994553566 254:0.035704564303159714 255:0.24536509811878204 256:0.23716527223587036 257:0.11528953909873962 258:0.23755820095539093 259:0.21482247114181519 260:0.22959041595458984 261:0.09600110352039337 262:0.19135954976081848 263:0.12452825903892517 264:0.07084714621305466 265:0.1483733355998993 266:0.05924822390079498 267:0.10481169074773788 268:0.03323502093553543 269:0.03523576259613037 270:0.047532085329294205 271:0.20758721232414246 272:0.4001048505306244 273:0.10166292637586594 274:0.2622159421443939 275:0.2958422601222992 276:0.1615176498889923 277:0.22404071688652039 278:0.036590658128261566 279:0.2207736223936081 280:0.049832481890916824 281:0.07022639364004135 282:0.07454650849103928 283:0.24859534204006195 284:0.09080304205417633 285:0.09913600981235504 286:0.08397921919822693 287:0.04348310828208923 288:0.021357757970690727 289:0.0022785833571106195 290:0.0050950669683516026 291:0.00821554847061634 292:0.014411026611924171 293:0.18484894931316376 294:0.4640886187553406 295:0.4335722029209137 296:0.05634216591715813 297:0.0 298:0.027712762355804443 299:0.023500749841332436 300:0.009667209349572659 301:0.024601159617304802 302:0.05924316495656967 303:0.08327720314264297 304:0.11011341959238052 305:0.03299573436379433 306:0.016600351780653 307:0.0 308:0.0 309:0.006444806698709726 310:0.04553565755486488 311:0.050317417830228806 312:0.19742198288440704 313:0.38075441122055054 314:0.28541263937950134 315:0.04258352890610695 316:0.004557166714221239 317:0.0 318:0.0 319:0.0 320:0.006835749838501215 321:0.1391761600971222 322:0.38731488585472107 323:0.28395408391952515 324:0.10527908802032471 
0.0 0.13210087979853458 0.0 0.0 0.0 1:0.5017484426498413 2:0.020455755293369293 3:0.09820156544446945 4:0.0397014319896698 5:0.06708600372076035 6:0.023280104622244835 7:0.025874707847833633 8:0.05769184231758118 9:0.34666046500205994 10:0.08990567922592163 11:0.02727433852851391 12:0.05606186389923096 13:0.1425226330757141 14:0.1840234398841858 15:0.03585295379161835 16:0.07568139582872391 17:0.02727433852851391 18:0.037764549255371094 19:0.6114987134933472 20:0.020455755293369293 21:0.05843159928917885 22:0.039741624146699905 23:0.03354300186038017 24:0.02323991060256958 25:0.017249805852770805 26:0.05872473120689392 27:0.33478736877441406 28:0.09601479768753052 29:0.06415142118930817 30:0.04312451183795929 31:0.05333859845995903 32:0.06708600372076035 33:0.07974037528038025 34:0.037296362221241 35:0.04105313494801521 36:0.05705041438341141 37:0.06030856817960739 38:0.009507428854703903 39:0.030065128579735756 40:0.004753714427351952 41:0.31998518109321594 42:0.01351913157850504 43:0.06508657336235046 44:0.04858359321951866 45:0.010840136557817459 46:0.053148142993450165 47:0.009507428854703903 48:0.018039077520370483 49:0.004753714427351952 50:0.41945701837539673 51:0.030491340905427933 52:0.03607815504074097 53:0.01426114421337843 54:0.02893371693789959 55:0.07288818061351776 56:0.02008398249745369 57:0.03307164087891579 58:0.011476482264697552 59:0.04049862176179886 60:0.11079048365354538 61:0.04674980044364929 62:0.042783431708812714 63:0.015488184057176113 64:0.08139188587665558 65:0.004753714427351952 66:0.009019538760185242 67:0.34764647483825684 68:0.6870728731155396 69:0.2653307020664215 70:0.04810420423746109 71:0.07808347046375275 72:0.0 73:0.05704547464847565 74:0.02111680991947651 75:0.03338860720396042 76:0.018024325370788574 77:0.5420569777488708 78:0.04969954490661621 79:0.05008290708065033 80:0.02639601193368435 81:0.0 82:0.05506766587495804 83:0.0 84:0.030049743130803108 85:0.0 86:0.6506639122962952 87:0.01583760790526867 88:0.08041659742593765 89:0.022304117679595947 90:0.02697027288377285 91:0.1811922788619995 92:0.01583760790526867 93:0.18710973858833313 94:0.26857393980026245 95:0.2489405870437622 96:0.02111680991947651 97:0.043405190110206604 98:0.1850055754184723 99:0.03213213011622429 100:0.10015914589166641 101:0.0499463826417923 102:0.050413522869348526 103:0.018024325370788574 104:0.035413965582847595 105:0.03076944686472416 106:0.043405190110206604 107:0.027583319693803787 108:0.009734367951750755 109:0.5058988928794861 110:0.04118278622627258 111:0.03038732521235943 112:0.030298268422484398 113:0.0306958369910717 114:0.02627754956483841 115:0.01736418716609478 116:0.034318987280130386 117:0.410490483045578 118:0.12477584183216095 119:0.10730328410863876 120:0.04775151237845421 121:0.05158998817205429 122:0.03990458697080612 123:0.030298268422484398 124:0.06114383041858673 125:0.03852273151278496 126:0.009706876240670681 127:0.6639888286590576 128:0.03586267679929733 129:0.07618323713541031 130:0.013727596029639244 131:0.03683500364422798 132:0.0 133:0.00868209358304739 134:0.027455192059278488 135:0.21733376383781433 136:0.11463430523872375 137:0.04272647202014923 138:0.05209255963563919 139:0.0537327378988266 140:0.0460437536239624 141:0.030298268422484398 142:0.0656501054763794 143:0.045386526733636856 144:0.038827504962682724 145:0.06535076349973679 146:0.22315728664398193 147:0.20599490404129028 148:0.2175232619047165 149:0.09312763810157776 150:0.018395382910966873 151:0.10057944804430008 152:0.12463905662298203 153:0.06691022217273712 154:0.03658082336187363 155:0.04545607417821884 156:0.282678484916687 157:0.3750295639038086 158:0.23287346959114075 159:0.2162463366985321 160:0.08805481344461441 161:0.033183753490448 162:0.04233934357762337 163:0.23359204828739166 164:0.03310028836131096 165:0.03451618179678917 166:0.04912996292114258 167:0.10810580104589462 168:0.05763806402683258 169:0.1312127262353897 170:0.023085493594408035 171:0.2506321668624878 172:0.010464484803378582 173:0.057034000754356384 174:0.5278417468070984 175:0.19077646732330322 176:0.08900786191225052 177:0.01658065989613533 178:0.0 179:0.004883717745542526 180:0.002204965567216277 181:0.6639755368232727 182:0.4067305624485016 183:0.15405070781707764 184:0.009579988196492195 185:0.13397477567195892 186:0.07680294662714005 187:0.041428741067647934 188:0.17041413486003876 189:0.3403431475162506 190:0.029431918635964394 191:0.024657905101776123 192:0.021380547434091568 193:0.006970465183258057 194:0.015586433932185173 195:0.015503093600273132 196:0.018441542983055115 197:0.009293953888118267 198:0.0052983686327934265 199:0.057956092059612274 200:0.17433218657970428 201:0.3726729154586792 202:0.1400795727968216 203:0.02604208141565323 204:0.018456820398569107 205:0.01777954399585724 206:0.011617441661655903 207:0.0 208:0.029263297095894814 209:0.006970465183258057 210:0.01028652023524046 211:0.0046469769440591335 212:0.013508242554962635 213:0.009857726283371449 214:0.0332820788025856 215:0.016786977648735046 216:0.009857726283371449 217:0.07635876536369324 218:0.013872968032956123 219:0.013808931224048138 220:0.008719258941709995 221:0.0079946955665946 222:0.002553811762481928 223:0.005289293825626373 224:0.009459725581109524 225:0.06527044624090195 226:0.09204443544149399 227:0.3192415237426758 228:0.07345414161682129 229:0.10644619911909103 230:0.009707844816148281 231:0.14201204478740692 232:0.02997967042028904 233:0.007166572380810976 234:0.04600006714463234 235:0.08053842186927795 236:0.011779333464801311 237:0.007268275134265423 238:0.00618521636351943 239:0.008565745316445827 240:0.008190346881747246 241:0.00932722445577383 242:0.0038307178765535355 243:0.07657407224178314 244:0.47963833808898926 245:0.7277431488037109 246:0.031927358359098434 247:0.04343707859516144 248:0.008586113341152668 249:0.12397996336221695 250:0.07278798520565033 251:0.088649682700634 252:0.18662190437316895 253:0.30523109436035156 254:0.5777119994163513 255:0.042539261281490326 256:0.04040513560175896 257:0.020755888894200325 258:0.01604572869837284 259:0.03489241376519203 260:0.017083805054426193 261:0.03716291859745979 262:0.13539323210716248 263:0.39831212162971497 264:0.05500754714012146 265:0.030427241697907448 266:0.026105113327503204 267:0.010416572913527489 268:0.0 269:0.0011832520831376314 270:0.0 271:0.05760343745350838 272:0.33108386397361755 273:0.1760389804840088 274:0.04502040892839432 275:0.15621785819530487 276:0.1658678650856018 277:0.1899983137845993 278:0.25525015592575073 279:0.05478987097740173 280:0.1843128651380539 281:0.14308258891105652 282:0.0183773972094059 283:0.020031588152050972 284:0.027744732797145844 285:0.05163373798131943 286:0.07926949113607407 287:0.023239316418766975 288:0.1295040100812912 289:0.0 290:0.0 291:0.0069122095592319965 292:0.0 293:0.29237523674964905 294:0.7258426547050476 295:0.08110903203487396 296:0.03624778240919113 297:0.0 298:0.02443835139274597 299:0.02520511858165264 300:0.04181547462940216 301:0.03111841157078743 302:0.0734672024846077 303:0.2128562182188034 304:0.22524061799049377 305:0.1066943109035492 306:0.0 307:0.05779452621936798 308:0.010929163545370102 309:0.027648838236927986 310:0.024121830239892006 311:0.05376437306404114 312:0.03964971750974655 313:0.048385463654994965 314:0.06045060604810715 315:0.0 316:0.03421369194984436 317:0.04085329920053482 318:0.0069122095592319965 319:0.23422113060951233 320:0.019550681114196777 321:0.06991933286190033 322:0.3090682923793793 323:0.27692946791648865 324:0.11163247376680374 
0.005894891095577971 0.12503053010510318 0.01966087735382418 0.0 0.0 1:0.09861072897911072 2:0.07726982980966568 3:0.1599767506122589 4:0.09502548724412918 5:0.20228184759616852 6:0.09539785981178284 7:0.13296425342559814 8:0.15449263155460358 9:0.4039718508720398 10:0.0749192014336586 11:0.016752442345023155 12:0.18101902306079865 13:0.37155210971832275 14:0.25534534454345703 15:0.14492471516132355 16:0.10595174133777618 17:0.08752988278865814 18:0.0 19:0.5291251540184021 20:0.0 21:0.07416621595621109 22:0.050257328897714615 23:0.14234648644924164 24:0.016752442345023155 25:0.04238069802522659 26:0.016752442345023155 27:0.13085204362869263 28:0.15226992964744568 29:0.050257328897714615 30:0.15892760455608368 31:0.06700976938009262 32:0.15733031928539276 33:0.050257328897714615 34:0.010595174506306648 35:0.050257328897714615 36:0.0 37:0.02680630050599575 38:0.01565922051668167 39:0.049282778054475784 40:0.07747781276702881 41:0.1673077940940857 42:0.01798221282660961 43:0.03411884605884552 44:0.005994070786982775 45:0.0 46:0.01072251982986927 47:0.01198814157396555 48:0.05553232505917549 49:0.07602764666080475 50:0.204084575176239 51:0.08785422891378403 52:0.07032087445259094 53:0.01198814157396555 54:0.008476896211504936 55:0.03484819084405899 56:0.01198814157396555 57:0.03032786399126053 58:0.21310938894748688 59:0.23137064278125763 60:0.005994070786982775 61:0.018954915925860405 62:0.02165329083800316 63:0.0 64:0.02680630050599575 65:0.005994070786982775 66:0.307212233543396 67:0.08851620554924011 68:0.7262219786643982 69:0.14613056182861328 70:0.3789323568344116 71:0.005994070786982775 72:0.0 73:0.1350238025188446 74:0.04799603670835495 75:0.045533038675785065 76:0.15014640986919403 77:0.4675080180168152 78:0.1210286021232605 79:0.08764737844467163 80:0.05082861706614494 81:0.016969162970781326 82:0.07512567937374115 83:0.011999009177088737 84:0.06071071699261665 85:0.0409671813249588 86:0.6306997537612915 87:0.10096223652362823 88:0.14066317677497864 89:0.07469266653060913 90:0.016969162970781326 91:0.080491803586483 92:0.038829609751701355 93:0.14076925814151764 94:0.0409671813249588 95:0.1717158406972885 96:0.22355987131595612 97:0.03794419765472412 98:0.10152328014373779 99:0.016969162970781326 100:0.11443012207746506 101:0.038829609751701355 102:0.2806336581707001 103:0.14289718866348267 104:0.0697595626115799 105:0.11624422669410706 106:0.10282505303621292 107:0.04799603670835495 108:0.016969162970781326 109:0.34675851464271545 110:0.03719523176550865 111:0.08556684851646423 112:0.027896424755454063 113:0.05821974575519562 114:0.027896424755454063 115:0.029405411332845688 116:0.0 117:0.15072259306907654 118:0.0415855310857296 119:0.018597615882754326 120:0.029405411332845688 121:0.009298807941377163 122:0.112280935049057 123:0.009298807941377163 124:0.05292973294854164 125:0.059589724987745285 126:0.041792940348386765 127:0.7150892615318298 128:0.009298807941377163 129:0.029405411332845688 130:0.09785127639770508 131:0.09148816764354706 132:0.08049842715263367 133:0.017643246799707413 134:0.018597615882754326 135:0.0918654352426529 136:0.4938350021839142 137:0.07516005635261536 138:0.035286493599414825 139:0.06749188154935837 140:0.05821974575519562 141:0.0673479288816452 142:0.0470486544072628 143:0.0820247232913971 144:0.026301000267267227 145:0.2788553237915039 146:0.2601057291030884 147:0.15286734700202942 148:0.16781024634838104 149:0.11429060250520706 150:0.054611023515462875 151:0.02751908078789711 152:0.04282623529434204 153:0.03256187587976456 154:0.06286052614450455 155:0.03581595793366432 156:0.22946836054325104 157:0.30137479305267334 158:0.17140622437000275 159:0.17754937708377838 160:0.03501710295677185 161:0.03581160306930542 162:0.06166991963982582 163:0.2303289771080017 164:0.050832003355026245 165:0.018859902396798134 166:0.08570507168769836 167:0.14590056240558624 168:0.06203741207718849 169:0.22064903378486633 170:0.11306396126747131 171:0.12868362665176392 172:0.004149808548390865 173:0.07745250314474106 174:0.5299638509750366 175:0.3196459114551544 176:0.09967111051082611 177:0.03690344840288162 178:0.012240862473845482 179:0.020406687632203102 180:0.0035266592167317867 181:0.36414122581481934 182:0.09679393470287323 183:0.0606679767370224 184:0.10377150028944016 185:0.029927315190434456 186:0.014290695078670979 187:0.3050162196159363 188:0.4130801558494568 189:0.3795361816883087 190:0.016896093264222145 191:0.03373272344470024 192:0.04754852131009102 193:0.06980158388614655 194:0.06317988783121109 195:0.0301213338971138 196:0.007053935434669256 197:0.0037177507765591145 198:0.0 199:0.2589929401874542 200:0.504503071308136 201:0.29767048358917236 202:0.03959761559963226 203:0.013301028870046139 204:0.0037177507765591145 205:0.03434467315673828 206:0.01714794524013996 207:0.00685519352555275 208:0.03491520136594772 209:0.0037177507765591145 210:0.02950780838727951 211:0.03801880031824112 212:0.04987885802984238 213:0.030701642856001854 214:0.027156496420502663 215:0.0037177507765591145 216:0.005257693585008383 217:0.3258247375488281 218:0.0 219:0.04688400775194168 220:0.02181508205831051 221:0.04862293601036072 222:0.009112613275647163 223:0.025004805997014046 224:0.009884017519652843 225:0.15953287482261658 226:0.16254067420959473 227:0.11959829181432724 228:0.11482858657836914 229:0.009884017519652843 230:0.04659572243690491 231:0.06557674705982208 232:0.0879242792725563 233:0.020879507064819336 234:0.057027943432331085 235:0.3768764138221741 236:0.08362667262554169 237:0.12529872357845306 238:0.019768035039305687 239:0.019891202449798584 240:0.004942008759826422 241:0.012502402998507023 242:0.009884017519652843 243:0.08630914241075516 244:0.10559965670108795 245:0.16011124849319458 246:0.6939457058906555 247:0.2939698100090027 248:0.03978240489959717 249:0.034945279359817505 250:0.07399114966392517 251:0.0645260214805603 252:0.013978111557662487 253:0.058187730610370636 254:0.22277507185935974 255:0.15839174389839172 256:0.1059543639421463 257:0.04428447037935257 258:0.18865017592906952 259:0.4019462466239929 260:0.1934128999710083 261:0.08934590965509415 262:0.07990633696317673 263:0.36768168210983276 264:0.1023067906498909 265:0.06327091157436371 266:0.06888405233621597 267:0.22652453184127808 268:0.013941721059381962 269:0.015389510430395603 270:0.354719877243042 271:0.02068084292113781 272:0.059923574328422546 273:0.06063183769583702 274:0.3334837853908539 275:0.304604709148407 276:0.1877063512802124 277:0.1318807303905487 278:0.08870997279882431 279:0.0371699258685112 280:0.08052526414394379 281:0.12688152492046356 282:0.12108784168958664 283:0.11048407107591629 284:0.038358379155397415 285:0.05623600259423256 286:0.006281055510044098 287:0.007073630578815937 288:0.008089005947113037 289:0.04525667428970337 290:0.03223848342895508 291:0.10807739943265915 292:0.2620095908641815 293:0.2366471141576767 294:0.2466653287410736 295:0.17968939244747162 296:0.0 297:0.0 298:0.084571473300457 299:0.00893606897443533 300:0.03390999510884285 301:0.026808207854628563 302:0.1039046123623848 303:0.06255247443914413 304:0.08533460646867752 305:0.06109907105565071 306:0.0 307:0.19498112797737122 308:0.00893606897443533 309:0.02895408123731613 310:0.11124923825263977 311:0.08486846089363098 312:0.26973098516464233 313:0.3385394513607025 314:0.22520115971565247 315:0.2885186970233917 316:0.38027334213256836 317:0.050153251737356186 318:0.08913600444793701 319:0.00893606897443533 320:0.007992662489414215 321:0.0 322:0.08775732666254044 323:0.31198373436927795 324:0.3042025864124298 
0.0771961640067214 0.0 0.0 0.04502782235763301 0.0 1:0.09214913845062256 2:0.055378954857587814 3:0.12842398881912231 4:0.14451004564762115 5:0.28068384528160095 6:0.07067142426967621 7:0.16344870626926422 8:0.018459651619195938 9:0.0 10:0.10040454566478729 11:0.04822494462132454 12:0.14009889960289001 13:0.04456554353237152 14:0.033021628856658936 15:0.4893033802509308 16:0.32279402017593384 17:0.26394209265708923 18:0.0 19:0.20906449854373932 20:0.08514424413442612 21:0.17512361705303192 22:0.036919303238391876 23:0.22289597988128662 24:0.036919303238391876 25:0.19321398437023163 26:0.1220635399222374 27:0.06014380231499672 28:0.13208651542663574 29:0.08505617827177048 30:0.09981473535299301 31:0.0970631018280983 32:0.28068384528160095 33:0.25756174325942993 34:0.11148963868618011 35:0.018459651619195938 36:0.0 37:0.09059309214353561 38:0.05144764855504036 39:0.049985967576503754 40:0.09597411006689072 41:0.15657024085521698 42:0.08480311185121536 43:0.038503896445035934 44:0.01424175500869751 45:0.0 46:0.08598294109106064 47:0.02572382427752018 48:0.07497895509004593 49:0.07477464526891708 50:0.11145936697721481 51:0.08901640772819519 52:0.029433680698275566 53:0.02848351001739502 54:0.0 55:0.06830121576786041 56:0.02848351001739502 57:0.0454823300242424 58:0.07692927867174149 59:0.07324472814798355 60:0.06175464019179344 61:0.10155482590198517 62:0.032844703644514084 63:0.010070441290736198 64:0.06778443604707718 65:0.3068896532058716 66:0.40548795461654663 67:0.26899001002311707 68:0.5099775195121765 69:0.1280638724565506 70:0.4770990014076233 71:0.17018939554691315 72:0.0 73:0.14801277220249176 74:0.10779110342264175 75:0.17736271023750305 76:0.25960761308670044 77:0.30308476090431213 78:0.32606860995292664 79:0.18548458814620972 80:0.04673917964100838 81:0.0 82:0.1463167816400528 83:0.07010877132415771 84:0.14780226349830627 85:0.07978877425193787 86:0.22992636263370514 87:0.18294714391231537 88:0.14114390313625336 89:0.04673917964100838 90:0.0 91:0.2316223531961441 92:0.04673917964100838 93:0.1182418018579483 94:0.19262713193893433 95:0.272596150636673 96:0.02336958982050419 97:0.16258247196674347 98:0.3067704439163208 99:0.0 100:0.10451198369264603 101:0.0 102:0.17736269533634186 103:0.04673917964100838 104:0.3448895514011383 105:0.02336958982050419 106:0.05912090465426445 107:0.0 108:0.0 109:0.11654641479253769 110:0.012409795075654984 111:0.03139457479119301 112:0.012409795075654984 113:0.1387457251548767 114:0.05817485600709915 115:0.04709186032414436 116:0.0 117:0.09042444080114365 118:0.4333483576774597 119:0.024819590151309967 120:0.15697285532951355 121:0.065060093998909 122:0.07214777916669846 123:0.05991979315876961 124:0.0706377848982811 125:0.03722938895225525 126:0.3513774871826172 127:0.27314960956573486 128:0.012409795075654984 129:0.05494049936532974 130:0.012409795075654984 131:0.04994846135377884 132:0.012409795075654984 133:0.06278914213180542 134:0.1465814709663391 135:0.10272688418626785 136:0.6639711260795593 137:0.07724976539611816 138:0.0706377923488617 139:0.024819590151309967 140:0.08324743807315826 141:0.0 142:0.04709186032414436 143:0.024819590151309967 144:0.13196276128292084 145:0.08178012073040009 146:0.1389366239309311 147:0.17504490911960602 148:0.2861214280128479 149:0.18546034395694733 150:0.061543919146060944 151:0.024170860648155212 152:0.020654160529375076 153:0.13063369691371918 154:0.10716655850410461 155:0.1371804028749466 156:0.142230823636055 157:0.3619350492954254 158:0.15918292105197906 159:0.029515862464904785 160:0.051601726561784744 161:0.08835361897945404 162:0.038075242191553116 163:0.22605280578136444 164:0.177341490983963 165:0.09646929800510406 166:0.040226902812719345 167:0.12568582594394684 168:0.2445150762796402 169:0.09760677814483643 170:0.11241937428712845 171:0.2324102818965912 172:0.01812789961695671 173:0.3936314582824707 174:0.40106767416000366 175:0.05782138183712959 176:0.12991124391555786 177:0.06173895671963692 178:0.004467652179300785 179:0.008895795792341232 180:0.009219856932759285 181:0.4854356050491333 182:0.027230339124798775 183:0.016871465370059013 184:0.03022787719964981 185:0.03077593818306923 186:0.09914205223321915 187:0.1587584912776947 188:0.2053927630186081 189:0.33174359798431396 190:0.019707288593053818 191:0.009360583499073982 192:0.029600759968161583 193:0.03325146064162254 194:0.04046640545129776 195:0.01065300963819027 196:0.009866921231150627 197:0.006240388844162226 198:0.0 199:0.5487173795700073 200:0.2136613428592682 201:0.42286086082458496 202:0.025700246915221214 203:0.07409458607435226 204:0.07876911014318466 205:0.037091176956892014 206:0.022521570324897766 207:0.16042256355285645 208:0.020930899307131767 209:0.02566329389810562 210:0.030685150995850563 211:0.018185824155807495 212:0.030698653310537338 213:0.013773203827440739 214:0.02782277762889862 215:0.005031162407249212 216:0.004412621259689331 217:0.04184180498123169 218:0.016803575679659843 219:0.006169854197651148 220:0.006661401130259037 221:0.012215687893331051 222:0.009755396284162998 223:0.004935883451253176 224:0.0039021584670990705 225:0.02592494525015354 226:0.025303924456238747 227:0.04698854684829712 228:0.019743531942367554 229:0.008612480014562607 230:0.020995503291487694 231:0.008307934738695621 232:0.012339708395302296 233:0.007804316934198141 234:0.0035976122599095106 235:0.040630023926496506 236:0.027794435620307922 237:0.027147356420755386 238:0.02274344675242901 239:0.008725491352379322 240:0.009755396284162998 241:0.0037019122391939163 242:0.00994978565722704 243:0.014258123934268951 244:0.6114755272865295 245:0.6504577398300171 246:0.42644044756889343 247:0.03853526711463928 248:0.022719787433743477 249:0.021092968061566353 250:0.024953512474894524 251:0.030955404043197632 252:0.07641507685184479 253:0.18449632823467255 254:0.04955510422587395 255:0.27718695998191833 256:0.026631465181708336 257:0.0884331613779068 258:0.04572014883160591 259:0.08713430911302567 260:0.11763330549001694 261:0.2145974040031433 262:0.4433325529098511 263:0.2520708739757538 264:0.029977288097143173 265:0.01973395049571991 266:0.009819647297263145 267:0.045819662511348724 268:0.029872752726078033 269:0.01652686670422554 270:0.12704895436763763 271:0.19541124999523163 272:0.08632037788629532 273:0.04488798975944519 274:0.028467711061239243 275:0.1263861060142517 276:0.05348636582493782 277:0.052671097218990326 278:0.03022788092494011 279:0.02610553801059723 280:0.5541381239891052 281:0.014760245569050312 282:0.006241387687623501 283:0.014924684539437294 284:0.023103762418031693 285:0.04668455198407173 286:0.08465009182691574 287:0.11181852221488953 288:0.35510531067848206 289:0.3425191044807434 290:0.2155108004808426 291:0.14327646791934967 292:0.07729140669107437 293:0.21218213438987732 294:0.18978147208690643 295:0.2415422946214676 296:0.10941972583532333 297:0.0 298:0.2563401758670807 299:0.09489073604345322 300:0.16652460396289825 301:0.12843967974185944 302:0.30766409635543823 303:0.03354893997311592 304:0.13503186404705048 305:0.04744536802172661 306:0.0 307:0.22279123961925507 308:0.023722684010863304 309:0.12002833187580109 310:0.11861342191696167 311:0.14852748811244965 312:0.11861342191696167 313:0.2250531166791916 314:0.13314242660999298 315:0.0 316:0.26522767543792725 317:0.17139409482479095 318:0.24005666375160217 319:0.11861342191696167 320:0.12730927765369415 321:0.12473677098751068 322:0.16503895819187164 323:0.07116805762052536 324:0.06709787994623184 
